digraph Tree {
node [shape=box, style="filled, rounded", color="black", fontname="helvetica"] ;
edge [fontname="helvetica"] ;
0 [label=<Reservoirs_max &le; -0.382<br/>gini = 0.35<br/>samples = 657897<br/>value = [509363, 148534]<br/>class = 0>, fillcolor="#eda673"] ;
1 [label=<TP3_std &le; -0.37<br/>gini = 0.5<br/>samples = 281685<br/>value = [144858, 136827]<br/>class = 0>, fillcolor="#fef8f4"] ;
0 -> 1 [labeldistance=2.5, labelangle=45, headlabel="True"] ;
2 [label=<TP2_mean &le; -0.393<br/>gini = 0.399<br/>samples = 117839<br/>value = [85361, 32478]<br/>class = 0>, fillcolor="#efb184"] ;
1 -> 2 ;
3 [label=<Reservoirs_mean &le; -1.019<br/>gini = 0.249<br/>samples = 6608<br/>value = [965, 5643]<br/>class = 1>, fillcolor="#5baee9"] ;
2 -> 3 ;
4 [label=<H1_min &le; 0.246<br/>gini = 0.429<br/>samples = 2337<br/>value = [727, 1610]<br/>class = 1>, fillcolor="#92c9f1"] ;
3 -> 4 ;
5 [label=<Reservoirs_mean &le; -1.066<br/>gini = 0.499<br/>samples = 1085<br/>value = [562, 523]<br/>class = 0>, fillcolor="#fdf6f1"] ;
4 -> 5 ;
6 [label=<gini = 0.0<br/>samples = 148<br/>value = [148, 0]<br/>class = 0>, fillcolor="#e58139"] ;
5 -> 6 ;
7 [label=<Reservoirs_max &le; -1.051<br/>gini = 0.493<br/>samples = 937<br/>value = [414, 523]<br/>class = 1>, fillcolor="#d6ebfa"] ;
5 -> 7 ;
8 [label=<TP3_max &le; -0.903<br/>gini = 0.181<br/>samples = 288<br/>value = [29, 259]<br/>class = 1>, fillcolor="#4fa8e8"] ;
7 -> 8 ;
9 [label=<H1_std &le; -0.346<br/>gini = 0.465<br/>samples = 76<br/>value = [28, 48]<br/>class = 1>, fillcolor="#acd6f4"] ;
8 -> 9 ;
10 [label=<Motor_current_std &le; -0.447<br/>gini = 0.45<br/>samples = 41<br/>value = [27, 14]<br/>class = 0>, fillcolor="#f2c2a0"] ;
9 -> 10 ;
11 [label=<gini = 0.0<br/>samples = 27<br/>value = [27, 0]<br/>class = 0>, fillcolor="#e58139"] ;
10 -> 11 ;
12 [label=<gini = 0.0<br/>samples = 14<br/>value = [0, 14]<br/>class = 1>, fillcolor="#399de5"] ;
10 -> 12 ;
13 [label=<TP2_max &le; -0.446<br/>gini = 0.056<br/>samples = 35<br/>value = [1, 34]<br/>class = 1>, fillcolor="#3fa0e6"] ;
9 -> 13 ;
14 [label=<gini = 0.0<br/>samples = 34<br/>value = [0, 34]<br/>class = 1>, fillcolor="#399de5"] ;
13 -> 14 ;
15 [label=<gini = 0.0<br/>samples = 1<br/>value = [1, 0]<br/>class = 0>, fillcolor="#e58139"] ;
13 -> 15 ;
16 [label=<Motor_current_mean &le; -0.97<br/>gini = 0.009<br/>samples = 212<br/>value = [1, 211]<br/>class = 1>, fillcolor="#3a9de5"] ;
8 -> 16 ;
17 [label=<gini = 0.0<br/>samples = 1<br/>value = [1, 0]<br/>class = 0>, fillcolor="#e58139"] ;
16 -> 17 ;
18 [label=<gini = 0.0<br/>samples = 211<br/>value = [0, 211]<br/>class = 1>, fillcolor="#399de5"] ;
16 -> 18 ;
19 [label=<Flowmeter_mean &le; -0.379<br/>gini = 0.483<br/>samples = 649<br/>value = [385, 264]<br/>class = 0>, fillcolor="#f7d7c1"] ;
7 -> 19 ;
20 [label=<gini = 0.0<br/>samples = 120<br/>value = [0, 120]<br/>class = 1>, fillcolor="#399de5"] ;
19 -> 20 ;
21 [label=<Oil_temperature_std &le; -0.449<br/>gini = 0.396<br/>samples = 529<br/>value = [385, 144]<br/>class = 0>, fillcolor="#efb083"] ;
19 -> 21 ;
22 [label=<TP2_std &le; -0.356<br/>gini = 0.113<br/>samples = 284<br/>value = [267, 17]<br/>class = 0>, fillcolor="#e78946"] ;
21 -> 22 ;
23 [label=<H1_mean &le; 0.089<br/>gini = 0.499<br/>samples = 21<br/>value = [10, 11]<br/>class = 1>, fillcolor="#edf6fd"] ;
22 -> 23 ;
24 [label=<gini = 0.0<br/>samples = 11<br/>value = [0, 11]<br/>class = 1>, fillcolor="#399de5"] ;
23 -> 24 ;
25 [label=<gini = 0.0<br/>samples = 10<br/>value = [10, 0]<br/>class = 0>, fillcolor="#e58139"] ;
23 -> 25 ;
26 [label=<Oil_temperature_min &le; -1.662<br/>gini = 0.045<br/>samples = 263<br/>value = [257, 6]<br/>class = 0>, fillcolor="#e6843e"] ;
22 -> 26 ;
27 [label=<gini = 0.0<br/>samples = 5<br/>value = [0, 5]<br/>class = 1>, fillcolor="#399de5"] ;
26 -> 27 ;
28 [label=<TP3_mean &le; -0.529<br/>gini = 0.008<br/>samples = 258<br/>value = [257, 1]<br/>class = 0>, fillcolor="#e5813a"] ;
26 -> 28 ;
29 [label=<gini = 0.0<br/>samples = 257<br/>value = [257, 0]<br/>class = 0>, fillcolor="#e58139"] ;
28 -> 29 ;
30 [label=<gini = 0.0<br/>samples = 1<br/>value = [0, 1]<br/>class = 1>, fillcolor="#399de5"] ;
28 -> 30 ;
31 [label=<H1_std &le; -0.352<br/>gini = 0.499<br/>samples = 245<br/>value = [118, 127]<br/>class = 1>, fillcolor="#f1f8fd"] ;
21 -> 31 ;
32 [label=<Motor_current_mean &le; -0.97<br/>gini = 0.082<br/>samples = 93<br/>value = [4, 89]<br/>class = 1>, fillcolor="#42a1e6"] ;
31 -> 32 ;
33 [label=<gini = 0.0<br/>samples = 4<br/>value = [4, 0]<br/>class = 0>, fillcolor="#e58139"] ;
32 -> 33 ;
34 [label=<gini = 0.0<br/>samples = 89<br/>value = [0, 89]<br/>class = 1>, fillcolor="#399de5"] ;
32 -> 34 ;
35 [label=<H1_min &le; 0.206<br/>gini = 0.375<br/>samples = 152<br/>value = [114, 38]<br/>class = 0>, fillcolor="#eeab7b"] ;
31 -> 35 ;
36 [label=<gini = 0.0<br/>samples = 20<br/>value = [0, 20]<br/>class = 1>, fillcolor="#399de5"] ;
35 -> 36 ;
37 [label=<TP2_mean &le; -0.393<br/>gini = 0.236<br/>samples = 132<br/>value = [114, 18]<br/>class = 0>, fillcolor="#e99558"] ;
35 -> 37 ;
38 [label=<H1_max &le; -0.119<br/>gini = 0.1<br/>samples = 19<br/>value = [1, 18]<br/>class = 1>, fillcolor="#44a2e6"] ;
37 -> 38 ;
39 [label=<gini = 0.0<br/>samples = 1<br/>value = [1, 0]<br/>class = 0>, fillcolor="#e58139"] ;
38 -> 39 ;
40 [label=<gini = 0.0<br/>samples = 18<br/>value = [0, 18]<br/>class = 1>, fillcolor="#399de5"] ;
38 -> 40 ;
41 [label=<gini = 0.0<br/>samples = 113<br/>value = [113, 0]<br/>class = 0>, fillcolor="#e58139"] ;
37 -> 41 ;
42 [label=<Motor_current_min &le; -0.835<br/>gini = 0.229<br/>samples = 1252<br/>value = [165, 1087]<br/>class = 1>, fillcolor="#57ace9"] ;
4 -> 42 ;
43 [label=<Flowmeter_max &le; -0.457<br/>gini = 0.091<br/>samples = 1026<br/>value = [49, 977]<br/>class = 1>, fillcolor="#43a2e6"] ;
42 -> 43 ;
44 [label=<gini = 0.0<br/>samples = 22<br/>value = [22, 0]<br/>class = 0>, fillcolor="#e58139"] ;
43 -> 44 ;
45 [label=<TP2_std &le; -0.356<br/>gini = 0.052<br/>samples = 1004<br/>value = [27, 977]<br/>class = 1>, fillcolor="#3ea0e6"] ;
43 -> 45 ;
46 [label=<Oil_temperature_min &le; -0.892<br/>gini = 0.38<br/>samples = 47<br/>value = [12, 35]<br/>class = 1>, fillcolor="#7dbfee"] ;
45 -> 46 ;
47 [label=<gini = 0.0<br/>samples = 35<br/>value = [0, 35]<br/>class = 1>, fillcolor="#399de5"] ;
46 -> 47 ;
48 [label=<gini = 0.0<br/>samples = 12<br/>value = [12, 0]<br/>class = 0>, fillcolor="#e58139"] ;
46 -> 48 ;
49 [label=<Reservoirs_mean &le; -1.076<br/>gini = 0.031<br/>samples = 957<br/>value = [15, 942]<br/>class = 1>, fillcolor="#3c9fe5"] ;
45 -> 49 ;
50 [label=<H1_std &le; -0.349<br/>gini = 0.496<br/>samples = 11<br/>value = [5, 6]<br/>class = 1>, fillcolor="#deeffb"] ;
49 -> 50 ;
51 [label=<gini = 0.0<br/>samples = 5<br/>value = [5, 0]<br/>class = 0>, fillcolor="#e58139"] ;
50 -> 51 ;
52 [label=<gini = 0.0<br/>samples = 6<br/>value = [0, 6]<br/>class = 1>, fillcolor="#399de5"] ;
50 -> 52 ;
53 [label=<DV_pressure_std &le; -0.182<br/>gini = 0.021<br/>samples = 946<br/>value = [10, 936]<br/>class = 1>, fillcolor="#3b9ee5"] ;
49 -> 53 ;
54 [label=<Flowmeter_mean &le; -0.35<br/>gini = 0.219<br/>samples = 40<br/>value = [5, 35]<br/>class = 1>, fillcolor="#55abe9"] ;
53 -> 54 ;
55 [label=<gini = 0.0<br/>samples = 5<br/>value = [5, 0]<br/>class = 0>, fillcolor="#e58139"] ;
54 -> 55 ;
56 [label=<gini = 0.0<br/>samples = 35<br/>value = [0, 35]<br/>class = 1>, fillcolor="#399de5"] ;
54 -> 56 ;
57 [label=<H1_min &le; 0.248<br/>gini = 0.011<br/>samples = 906<br/>value = [5, 901]<br/>class = 1>, fillcolor="#3a9ee5"] ;
53 -> 57 ;
58 [label=<Oil_temperature_min &le; -0.955<br/>gini = 0.198<br/>samples = 45<br/>value = [5, 40]<br/>class = 1>, fillcolor="#52a9e8"] ;
57 -> 58 ;
59 [label=<gini = 0.0<br/>samples = 39<br/>value = [0, 39]<br/>class = 1>, fillcolor="#399de5"] ;
58 -> 59 ;
60 [label=<TP3_std &le; -0.383<br/>gini = 0.278<br/>samples = 6<br/>value = [5, 1]<br/>class = 0>, fillcolor="#ea9a61"] ;
58 -> 60 ;
61 [label=<gini = 0.0<br/>samples = 5<br/>value = [5, 0]<br/>class = 0>, fillcolor="#e58139"] ;
60 -> 61 ;
62 [label=<gini = 0.0<br/>samples = 1<br/>value = [0, 1]<br/>class = 1>, fillcolor="#399de5"] ;
60 -> 62 ;
63 [label=<gini = 0.0<br/>samples = 861<br/>value = [0, 861]<br/>class = 1>, fillcolor="#399de5"] ;
57 -> 63 ;
64 [label=<Reservoirs_mean &le; -1.044<br/>gini = 0.5<br/>samples = 226<br/>value = [116, 110]<br/>class = 0>, fillcolor="#fef8f5"] ;
42 -> 64 ;
65 [label=<Flowmeter_min &le; 0.173<br/>gini = 0.227<br/>samples = 115<br/>value = [100, 15]<br/>class = 0>, fillcolor="#e99457"] ;
64 -> 65 ;
66 [label=<gini = 0.0<br/>samples = 100<br/>value = [100, 0]<br/>class = 0>, fillcolor="#e58139"] ;
65 -> 66 ;
67 [label=<gini = 0.0<br/>samples = 15<br/>value = [0, 15]<br/>class = 1>, fillcolor="#399de5"] ;
65 -> 67 ;
68 [label=<Flowmeter_mean &le; -0.369<br/>gini = 0.247<br/>samples = 111<br/>value = [16, 95]<br/>class = 1>, fillcolor="#5aaee9"] ;
64 -> 68 ;
69 [label=<gini = 0.0<br/>samples = 16<br/>value = [16, 0]<br/>class = 0>, fillcolor="#e58139"] ;
68 -> 69 ;
70 [label=<gini = 0.0<br/>samples = 95<br/>value = [0, 95]<br/>class = 1>, fillcolor="#399de5"] ;
68 -> 70 ;
71 [label=<H1_std &le; -0.345<br/>gini = 0.105<br/>samples = 4271<br/>value = [238, 4033]<br/>class = 1>, fillcolor="#45a3e7"] ;
3 -> 71 ;
72 [label=<Motor_current_mean &le; -0.97<br/>gini = 0.028<br/>samples = 3735<br/>value = [53, 3682]<br/>class = 1>, fillcolor="#3c9ee5"] ;
71 -> 72 ;
73 [label=<TP2_max &le; -0.446<br/>gini = 0.4<br/>samples = 47<br/>value = [34, 13]<br/>class = 0>, fillcolor="#efb185"] ;
72 -> 73 ;
74 [label=<gini = 0.0<br/>samples = 34<br/>value = [34, 0]<br/>class = 0>, fillcolor="#e58139"] ;
73 -> 74 ;
75 [label=<gini = 0.0<br/>samples = 13<br/>value = [0, 13]<br/>class = 1>, fillcolor="#399de5"] ;
73 -> 75 ;
76 [label=<TP3_min &le; -0.793<br/>gini = 0.01<br/>samples = 3688<br/>value = [19, 3669]<br/>class = 1>, fillcolor="#3a9ee5"] ;
72 -> 76 ;
77 [label=<gini = 0.0<br/>samples = 5<br/>value = [5, 0]<br/>class = 0>, fillcolor="#e58139"] ;
76 -> 77 ;
78 [label=<H1_std &le; -0.345<br/>gini = 0.008<br/>samples = 3683<br/>value = [14, 3669]<br/>class = 1>, fillcolor="#3a9de5"] ;
76 -> 78 ;
79 [label=<TP2_mean &le; -0.394<br/>gini = 0.003<br/>samples = 3622<br/>value = [6, 3616]<br/>class = 1>, fillcolor="#399de5"] ;
78 -> 79 ;
80 [label=<TP3_std &le; -0.387<br/>gini = 0.079<br/>samples = 145<br/>value = [6, 139]<br/>class = 1>, fillcolor="#42a1e6"] ;
79 -> 80 ;
81 [label=<gini = 0.0<br/>samples = 139<br/>value = [0, 139]<br/>class = 1>, fillcolor="#399de5"] ;
80 -> 81 ;
82 [label=<gini = 0.0<br/>samples = 6<br/>value = [6, 0]<br/>class = 0>, fillcolor="#e58139"] ;
80 -> 82 ;
83 [label=<gini = 0.0<br/>samples = 3477<br/>value = [0, 3477]<br/>class = 1>, fillcolor="#399de5"] ;
79 -> 83 ;
84 [label=<TP2_mean &le; -0.394<br/>gini = 0.228<br/>samples = 61<br/>value = [8, 53]<br/>class = 1>, fillcolor="#57ace9"] ;
78 -> 84 ;
85 [label=<gini = 0.0<br/>samples = 5<br/>value = [5, 0]<br/>class = 0>, fillcolor="#e58139"] ;
84 -> 85 ;
86 [label=<Reservoirs_mean &le; -1.01<br/>gini = 0.101<br/>samples = 56<br/>value = [3, 53]<br/>class = 1>, fillcolor="#44a3e6"] ;
84 -> 86 ;
87 [label=<Flowmeter_min &le; 0.109<br/>gini = 0.444<br/>samples = 3<br/>value = [2, 1]<br/>class = 0>, fillcolor="#f2c09c"] ;
86 -> 87 ;
88 [label=<gini = 0.0<br/>samples = 1<br/>value = [0, 1]<br/>class = 1>, fillcolor="#399de5"] ;
87 -> 88 ;
89 [label=<gini = 0.0<br/>samples = 2<br/>value = [2, 0]<br/>class = 0>, fillcolor="#e58139"] ;
87 -> 89 ;
90 [label=<TP3_min &le; -0.778<br/>gini = 0.037<br/>samples = 53<br/>value = [1, 52]<br/>class = 1>, fillcolor="#3d9fe6"] ;
86 -> 90 ;
91 [label=<gini = 0.0<br/>samples = 1<br/>value = [1, 0]<br/>class = 0>, fillcolor="#e58139"] ;
90 -> 91 ;
92 [label=<gini = 0.0<br/>samples = 52<br/>value = [0, 52]<br/>class = 1>, fillcolor="#399de5"] ;
90 -> 92 ;
93 [label=<Flowmeter_min &le; 0.18<br/>gini = 0.452<br/>samples = 536<br/>value = [185, 351]<br/>class = 1>, fillcolor="#a1d1f3"] ;
71 -> 93 ;
94 [label=<Reservoirs_std &le; -0.031<br/>gini = 0.486<br/>samples = 306<br/>value = [179, 127]<br/>class = 0>, fillcolor="#f7dac5"] ;
93 -> 94 ;
95 [label=<Motor_current_mean &le; -0.969<br/>gini = 0.407<br/>samples = 239<br/>value = [171, 68]<br/>class = 0>, fillcolor="#efb388"] ;
94 -> 95 ;
96 [label=<TP2_std &le; -0.356<br/>gini = 0.48<br/>samples = 80<br/>value = [32, 48]<br/>class = 1>, fillcolor="#bddef6"] ;
95 -> 96 ;
97 [label=<Motor_current_std &le; -0.447<br/>gini = 0.423<br/>samples = 46<br/>value = [32, 14]<br/>class = 0>, fillcolor="#f0b890"] ;
96 -> 97 ;
98 [label=<TP3_std &le; -0.378<br/>gini = 0.266<br/>samples = 38<br/>value = [32, 6]<br/>class = 0>, fillcolor="#ea995e"] ;
97 -> 98 ;
99 [label=<gini = 0.0<br/>samples = 4<br/>value = [0, 4]<br/>class = 1>, fillcolor="#399de5"] ;
98 -> 99 ;
100 [label=<H1_std &le; -0.344<br/>gini = 0.111<br/>samples = 34<br/>value = [32, 2]<br/>class = 0>, fillcolor="#e78945"] ;
98 -> 100 ;
101 [label=<TP3_std &le; -0.376<br/>gini = 0.059<br/>samples = 33<br/>value = [32, 1]<br/>class = 0>, fillcolor="#e6853f"] ;
100 -> 101 ;
102 [label=<TP2_std &le; -0.356<br/>gini = 0.444<br/>samples = 3<br/>value = [2, 1]<br/>class = 0>, fillcolor="#f2c09c"] ;
101 -> 102 ;
103 [label=<gini = 0.0<br/>samples = 2<br/>value = [2, 0]<br/>class = 0>, fillcolor="#e58139"] ;
102 -> 103 ;
104 [label=<gini = 0.0<br/>samples = 1<br/>value = [0, 1]<br/>class = 1>, fillcolor="#399de5"] ;
102 -> 104 ;
105 [label=<gini = 0.0<br/>samples = 30<br/>value = [30, 0]<br/>class = 0>, fillcolor="#e58139"] ;
101 -> 105 ;
106 [label=<gini = 0.0<br/>samples = 1<br/>value = [0, 1]<br/>class = 1>, fillcolor="#399de5"] ;
100 -> 106 ;
107 [label=<gini = 0.0<br/>samples = 8<br/>value = [0, 8]<br/>class = 1>, fillcolor="#399de5"] ;
97 -> 107 ;
108 [label=<gini = 0.0<br/>samples = 34<br/>value = [0, 34]<br/>class = 1>, fillcolor="#399de5"] ;
96 -> 108 ;
109 [label=<Motor_current_max &le; 0.609<br/>gini = 0.22<br/>samples = 159<br/>value = [139, 20]<br/>class = 0>, fillcolor="#e99355"] ;
95 -> 109 ;
110 [label=<H1_mean &le; 0.023<br/>gini = 0.029<br/>samples = 135<br/>value = [133, 2]<br/>class = 0>, fillcolor="#e5833c"] ;
109 -> 110 ;
111 [label=<TP2_mean &le; -0.393<br/>gini = 0.444<br/>samples = 3<br/>value = [1, 2]<br/>class = 1>, fillcolor="#9ccef2"] ;
110 -> 111 ;
112 [label=<gini = 0.0<br/>samples = 2<br/>value = [0, 2]<br/>class = 1>, fillcolor="#399de5"] ;
111 -> 112 ;
113 [label=<gini = 0.0<br/>samples = 1<br/>value = [1, 0]<br/>class = 0>, fillcolor="#e58139"] ;
111 -> 113 ;
114 [label=<gini = 0.0<br/>samples = 132<br/>value = [132, 0]<br/>class = 0>, fillcolor="#e58139"] ;
110 -> 114 ;
115 [label=<Towers_std &le; 0.04<br/>gini = 0.375<br/>samples = 24<br/>value = [6, 18]<br/>class = 1>, fillcolor="#7bbeee"] ;
109 -> 115 ;
116 [label=<gini = 0.0<br/>samples = 14<br/>value = [0, 14]<br/>class = 1>, fillcolor="#399de5"] ;
115 -> 116 ;
117 [label=<DV_pressure_mean &le; -0.379<br/>gini = 0.48<br/>samples = 10<br/>value = [6, 4]<br/>class = 0>, fillcolor="#f6d5bd"] ;
115 -> 117 ;
118 [label=<gini = 0.0<br/>samples = 4<br/>value = [0, 4]<br/>class = 1>, fillcolor="#399de5"] ;
117 -> 118 ;
119 [label=<gini = 0.0<br/>samples = 6<br/>value = [6, 0]<br/>class = 0>, fillcolor="#e58139"] ;
117 -> 119 ;
120 [label=<Flowmeter_mean &le; -0.327<br/>gini = 0.21<br/>samples = 67<br/>value = [8, 59]<br/>class = 1>, fillcolor="#54aae9"] ;
94 -> 120 ;
121 [label=<Reservoirs_mean &le; -1.008<br/>gini = 0.092<br/>samples = 62<br/>value = [3, 59]<br/>class = 1>, fillcolor="#43a2e6"] ;
120 -> 121 ;
122 [label=<gini = 0.0<br/>samples = 2<br/>value = [2, 0]<br/>class = 0>, fillcolor="#e58139"] ;
121 -> 122 ;
123 [label=<DV_pressure_max &le; -0.182<br/>gini = 0.033<br/>samples = 60<br/>value = [1, 59]<br/>class = 1>, fillcolor="#3c9fe5"] ;
121 -> 123 ;
124 [label=<gini = 0.0<br/>samples = 59<br/>value = [0, 59]<br/>class = 1>, fillcolor="#399de5"] ;
123 -> 124 ;
125 [label=<gini = 0.0<br/>samples = 1<br/>value = [1, 0]<br/>class = 0>, fillcolor="#e58139"] ;
123 -> 125 ;
126 [label=<gini = 0.0<br/>samples = 5<br/>value = [5, 0]<br/>class = 0>, fillcolor="#e58139"] ;
120 -> 126 ;
127 [label=<Reservoirs_min &le; -0.983<br/>gini = 0.051<br/>samples = 230<br/>value = [6, 224]<br/>class = 1>, fillcolor="#3ea0e6"] ;
93 -> 127 ;
128 [label=<gini = 0.0<br/>samples = 6<br/>value = [6, 0]<br/>class = 0>, fillcolor="#e58139"] ;
127 -> 128 ;
129 [label=<gini = 0.0<br/>samples = 224<br/>value = [0, 224]<br/>class = 1>, fillcolor="#399de5"] ;
127 -> 129 ;
130 [label=<Oil_temperature_max &le; 0.156<br/>gini = 0.366<br/>samples = 111231<br/>value = [84396, 26835]<br/>class = 0>, fillcolor="#eda978"] ;
2 -> 130 ;
131 [label=<TP2_mean &le; -0.392<br/>gini = 0.327<br/>samples = 97488<br/>value = [77431, 20057]<br/>class = 0>, fillcolor="#eca26c"] ;
130 -> 131 ;
132 [label=<Oil_temperature_max &le; -1.05<br/>gini = 0.388<br/>samples = 59109<br/>value = [43546, 15563]<br/>class = 0>, fillcolor="#eeae80"] ;
131 -> 132 ;
133 [label=<Motor_current_mean &le; -0.969<br/>gini = 0.3<br/>samples = 38103<br/>value = [31099, 7004]<br/>class = 0>, fillcolor="#eb9d66"] ;
132 -> 133 ;
134 [label=<Oil_temperature_max &le; -2.21<br/>gini = 0.26<br/>samples = 36406<br/>value = [30804, 5602]<br/>class = 0>, fillcolor="#ea985d"] ;
133 -> 134 ;
135 [label=<Reservoirs_mean &le; -0.962<br/>gini = 0.145<br/>samples = 482<br/>value = [38, 444]<br/>class = 1>, fillcolor="#4aa5e7"] ;
134 -> 135 ;
136 [label=<gini = 0.0<br/>samples = 444<br/>value = [0, 444]<br/>class = 1>, fillcolor="#399de5"] ;
135 -> 136 ;
137 [label=<gini = 0.0<br/>samples = 38<br/>value = [38, 0]<br/>class = 0>, fillcolor="#e58139"] ;
135 -> 137 ;
138 [label=<TP3_std &le; -0.43<br/>gini = 0.246<br/>samples = 35924<br/>value = [30766, 5158]<br/>class = 0>, fillcolor="#e9965a"] ;
134 -> 138 ;
139 [label=<Flowmeter_mean &le; -0.448<br/>gini = 0.343<br/>samples = 17720<br/>value = [13819, 3901]<br/>class = 0>, fillcolor="#eca571"] ;
138 -> 139 ;
140 [label=<Motor_current_std &le; -0.447<br/>gini = 0.033<br/>samples = 4863<br/>value = [4781, 82]<br/>class = 0>, fillcolor="#e5833c"] ;
139 -> 140 ;
141 [label=<Reservoirs_min &le; -1.012<br/>gini = 0.5<br/>samples = 94<br/>value = [47, 47]<br/>class = 0>, fillcolor="#ffffff"] ;
140 -> 141 ;
142 [label=<gini = 0.0<br/>samples = 47<br/>value = [0, 47]<br/>class = 1>, fillcolor="#399de5"] ;
141 -> 142 ;
143 [label=<gini = 0.0<br/>samples = 47<br/>value = [47, 0]<br/>class = 0>, fillcolor="#e58139"] ;
141 -> 143 ;
144 [label=<Flowmeter_std &le; -0.407<br/>gini = 0.015<br/>samples = 4769<br/>value = [4734, 35]<br/>class = 0>, fillcolor="#e5823a"] ;
140 -> 144 ;
145 [label=<TP3_std &le; -0.539<br/>gini = 0.007<br/>samples = 4688<br/>value = [4672, 16]<br/>class = 0>, fillcolor="#e5813a"] ;
144 -> 145 ;
146 [label=<gini = 0.0<br/>samples = 3<br/>value = [0, 3]<br/>class = 1>, fillcolor="#399de5"] ;
145 -> 146 ;
147 [label=<Flowmeter_std &le; -0.408<br/>gini = 0.006<br/>samples = 4685<br/>value = [4672, 13]<br/>class = 0>, fillcolor="#e5813a"] ;
145 -> 147 ;
148 [label=<Flowmeter_mean &le; -0.448<br/>gini = 0.001<br/>samples = 4459<br/>value = [4457, 2]<br/>class = 0>, fillcolor="#e58139"] ;
147 -> 148 ;
149 [label=<gini = 0.0<br/>samples = 4400<br/>value = [4400, 0]<br/>class = 0>, fillcolor="#e58139"] ;
148 -> 149 ;
150 [label=<Flowmeter_std &le; -0.408<br/>gini = 0.065<br/>samples = 59<br/>value = [57, 2]<br/>class = 0>, fillcolor="#e68540"] ;
148 -> 150 ;
151 [label=<gini = 0.0<br/>samples = 1<br/>value = [0, 1]<br/>class = 1>, fillcolor="#399de5"] ;
150 -> 151 ;
152 [label=<TP2_mean &le; -0.393<br/>gini = 0.034<br/>samples = 58<br/>value = [57, 1]<br/>class = 0>, fillcolor="#e5833c"] ;
150 -> 152 ;
153 [label=<gini = 0.5<br/>samples = 2<br/>value = [1, 1]<br/>class = 0>, fillcolor="#ffffff"] ;
152 -> 153 ;
154 [label=<gini = 0.0<br/>samples = 56<br/>value = [56, 0]<br/>class = 0>, fillcolor="#e58139"] ;
152 -> 154 ;
155 [label=<TP2_mean &le; -0.393<br/>gini = 0.093<br/>samples = 226<br/>value = [215, 11]<br/>class = 0>, fillcolor="#e68743"] ;
147 -> 155 ;
156 [label=<Motor_current_mean &le; -0.971<br/>gini = 0.346<br/>samples = 9<br/>value = [2, 7]<br/>class = 1>, fillcolor="#72b9ec"] ;
155 -> 156 ;
157 [label=<gini = 0.0<br/>samples = 7<br/>value = [0, 7]<br/>class = 1>, fillcolor="#399de5"] ;
156 -> 157 ;
158 [label=<gini = 0.0<br/>samples = 2<br/>value = [2, 0]<br/>class = 0>, fillcolor="#e58139"] ;
156 -> 158 ;
159 [label=<TP3_std &le; -0.433<br/>gini = 0.036<br/>samples = 217<br/>value = [213, 4]<br/>class = 0>, fillcolor="#e5833d"] ;
155 -> 159 ;
160 [label=<TP2_mean &le; -0.393<br/>gini = 0.027<br/>samples = 216<br/>value = [213, 3]<br/>class = 0>, fillcolor="#e5833c"] ;
159 -> 160 ;
161 [label=<TP3_min &le; -0.583<br/>gini = 0.32<br/>samples = 10<br/>value = [8, 2]<br/>class = 0>, fillcolor="#eca06a"] ;
160 -> 161 ;
162 [label=<gini = 0.0<br/>samples = 8<br/>value = [8, 0]<br/>class = 0>, fillcolor="#e58139"] ;
161 -> 162 ;
163 [label=<gini = 0.0<br/>samples = 2<br/>value = [0, 2]<br/>class = 1>, fillcolor="#399de5"] ;
161 -> 163 ;
164 [label=<Flowmeter_std &le; -0.408<br/>gini = 0.01<br/>samples = 206<br/>value = [205, 1]<br/>class = 0>, fillcolor="#e5823a"] ;
160 -> 164 ;
165 [label=<H1_mean &le; 0.14<br/>gini = 0.117<br/>samples = 16<br/>value = [15, 1]<br/>class = 0>, fillcolor="#e78946"] ;
164 -> 165 ;
166 [label=<gini = 0.0<br/>samples = 1<br/>value = [0, 1]<br/>class = 1>, fillcolor="#399de5"] ;
165 -> 166 ;
167 [label=<gini = 0.0<br/>samples = 15<br/>value = [15, 0]<br/>class = 0>, fillcolor="#e58139"] ;
165 -> 167 ;
168 [label=<gini = 0.0<br/>samples = 190<br/>value = [190, 0]<br/>class = 0>, fillcolor="#e58139"] ;
164 -> 168 ;
169 [label=<gini = 0.0<br/>samples = 1<br/>value = [0, 1]<br/>class = 1>, fillcolor="#399de5"] ;
159 -> 169 ;
170 [label=<TP2_mean &le; -0.393<br/>gini = 0.359<br/>samples = 81<br/>value = [62, 19]<br/>class = 0>, fillcolor="#eda876"] ;
144 -> 170 ;
171 [label=<TP3_max &le; -0.609<br/>gini = 0.095<br/>samples = 20<br/>value = [1, 19]<br/>class = 1>, fillcolor="#43a2e6"] ;
170 -> 171 ;
172 [label=<gini = 0.0<br/>samples = 19<br/>value = [0, 19]<br/>class = 1>, fillcolor="#399de5"] ;
171 -> 172 ;
173 [label=<gini = 0.0<br/>samples = 1<br/>value = [1, 0]<br/>class = 0>, fillcolor="#e58139"] ;
171 -> 173 ;
174 [label=<gini = 0.0<br/>samples = 61<br/>value = [61, 0]<br/>class = 0>, fillcolor="#e58139"] ;
170 -> 174 ;
175 [label=<Motor_current_mean &le; -0.97<br/>gini = 0.418<br/>samples = 12857<br/>value = [9038, 3819]<br/>class = 0>, fillcolor="#f0b68d"] ;
139 -> 175 ;
176 [label=<Flowmeter_max &le; -0.466<br/>gini = 0.402<br/>samples = 12055<br/>value = [8693, 3362]<br/>class = 0>, fillcolor="#efb286"] ;
175 -> 176 ;
177 [label=<Oil_temperature_max &le; -1.53<br/>gini = 0.498<br/>samples = 1510<br/>value = [800, 710]<br/>class = 0>, fillcolor="#fcf1e9"] ;
176 -> 177 ;
178 [label=<H1_max &le; -0.015<br/>gini = 0.404<br/>samples = 865<br/>value = [622, 243]<br/>class = 0>, fillcolor="#efb286"] ;
177 -> 178 ;
179 [label=<Oil_temperature_min &le; -1.393<br/>gini = 0.04<br/>samples = 486<br/>value = [476, 10]<br/>class = 0>, fillcolor="#e6843d"] ;
178 -> 179 ;
180 [label=<gini = 0.0<br/>samples = 475<br/>value = [475, 0]<br/>class = 0>, fillcolor="#e58139"] ;
179 -> 180 ;
181 [label=<Motor_current_min &le; -0.838<br/>gini = 0.165<br/>samples = 11<br/>value = [1, 10]<br/>class = 1>, fillcolor="#4da7e8"] ;
179 -> 181 ;
182 [label=<gini = 0.0<br/>samples = 1<br/>value = [1, 0]<br/>class = 0>, fillcolor="#e58139"] ;
181 -> 182 ;
183 [label=<gini = 0.0<br/>samples = 10<br/>value = [0, 10]<br/>class = 1>, fillcolor="#399de5"] ;
181 -> 183 ;
184 [label=<TP2_mean &le; -0.392<br/>gini = 0.474<br/>samples = 379<br/>value = [146, 233]<br/>class = 1>, fillcolor="#b5daf5"] ;
178 -> 184 ;
185 [label=<Flowmeter_std &le; -0.408<br/>gini = 0.298<br/>samples = 285<br/>value = [52, 233]<br/>class = 1>, fillcolor="#65b3eb"] ;
184 -> 185 ;
186 [label=<TP2_mean &le; -0.393<br/>gini = 0.188<br/>samples = 57<br/>value = [51, 6]<br/>class = 0>, fillcolor="#e89050"] ;
185 -> 186 ;
187 [label=<gini = 0.0<br/>samples = 6<br/>value = [0, 6]<br/>class = 1>, fillcolor="#399de5"] ;
186 -> 187 ;
188 [label=<gini = 0.0<br/>samples = 51<br/>value = [51, 0]<br/>class = 0>, fillcolor="#e58139"] ;
186 -> 188 ;
189 [label=<TP2_std &le; -0.356<br/>gini = 0.009<br/>samples = 228<br/>value = [1, 227]<br/>class = 1>, fillcolor="#3a9de5"] ;
185 -> 189 ;
190 [label=<gini = 0.0<br/>samples = 1<br/>value = [1, 0]<br/>class = 0>, fillcolor="#e58139"] ;
189 -> 190 ;
191 [label=<gini = 0.0<br/>samples = 227<br/>value = [0, 227]<br/>class = 1>, fillcolor="#399de5"] ;
189 -> 191 ;
192 [label=<gini = 0.0<br/>samples = 94<br/>value = [94, 0]<br/>class = 0>, fillcolor="#e58139"] ;
184 -> 192 ;
193 [label=<H1_min &le; 0.349<br/>gini = 0.4<br/>samples = 645<br/>value = [178, 467]<br/>class = 1>, fillcolor="#84c2ef"] ;
177 -> 193 ;
194 [label=<Reservoirs_mean &le; -1.056<br/>gini = 0.31<br/>samples = 578<br/>value = [111, 467]<br/>class = 1>, fillcolor="#68b4eb"] ;
193 -> 194 ;
195 [label=<Reservoirs_std &le; 0.023<br/>gini = 0.178<br/>samples = 485<br/>value = [48, 437]<br/>class = 1>, fillcolor="#4fa8e8"] ;
194 -> 195 ;
196 [label=<Motor_current_mean &le; -0.971<br/>gini = 0.08<br/>samples = 453<br/>value = [19, 434]<br/>class = 1>, fillcolor="#42a1e6"] ;
195 -> 196 ;
197 [label=<Reservoirs_mean &le; -1.059<br/>gini = 0.42<br/>samples = 10<br/>value = [7, 3]<br/>class = 0>, fillcolor="#f0b78e"] ;
196 -> 197 ;
198 [label=<gini = 0.0<br/>samples = 7<br/>value = [7, 0]<br/>class = 0>, fillcolor="#e58139"] ;
197 -> 198 ;
199 [label=<gini = 0.0<br/>samples = 3<br/>value = [0, 3]<br/>class = 1>, fillcolor="#399de5"] ;
197 -> 199 ;
200 [label=<Flowmeter_std &le; -0.407<br/>gini = 0.053<br/>samples = 443<br/>value = [12, 431]<br/>class = 1>, fillcolor="#3fa0e6"] ;
196 -> 200 ;
201 [label=<TP3_max &le; -0.556<br/>gini = 0.019<br/>samples = 420<br/>value = [4, 416]<br/>class = 1>, fillcolor="#3b9ee5"] ;
200 -> 201 ;
202 [label=<Reservoirs_min &le; -1.09<br/>gini = 0.014<br/>samples = 419<br/>value = [3, 416]<br/>class = 1>, fillcolor="#3a9ee5"] ;
201 -> 202 ;
203 [label=<gini = 0.0<br/>samples = 1<br/>value = [1, 0]<br/>class = 0>, fillcolor="#e58139"] ;
202 -> 203 ;
204 [label=<TP3_mean &le; -0.593<br/>gini = 0.01<br/>samples = 418<br/>value = [2, 416]<br/>class = 1>, fillcolor="#3a9de5"] ;
202 -> 204 ;
205 [label=<gini = 0.0<br/>samples = 388<br/>value = [0, 388]<br/>class = 1>, fillcolor="#399de5"] ;
204 -> 205 ;
206 [label=<Reservoirs_std &le; -0.069<br/>gini = 0.124<br/>samples = 30<br/>value = [2, 28]<br/>class = 1>, fillcolor="#47a4e7"] ;
204 -> 206 ;
207 [label=<gini = 0.0<br/>samples = 28<br/>value = [0, 28]<br/>class = 1>, fillcolor="#399de5"] ;
206 -> 207 ;
208 [label=<gini = 0.0<br/>samples = 2<br/>value = [2, 0]<br/>class = 0>, fillcolor="#e58139"] ;
206 -> 208 ;
209 [label=<gini = 0.0<br/>samples = 1<br/>value = [1, 0]<br/>class = 0>, fillcolor="#e58139"] ;
201 -> 209 ;
210 [label=<DV_pressure_std &le; -0.178<br/>gini = 0.454<br/>samples = 23<br/>value = [8, 15]<br/>class = 1>, fillcolor="#a3d1f3"] ;
200 -> 210 ;
211 [label=<gini = 0.0<br/>samples = 15<br/>value = [0, 15]<br/>class = 1>, fillcolor="#399de5"] ;
210 -> 211 ;
212 [label=<gini = 0.0<br/>samples = 8<br/>value = [8, 0]<br/>class = 0>, fillcolor="#e58139"] ;
210 -> 212 ;
213 [label=<Motor_current_mean &le; -0.97<br/>gini = 0.17<br/>samples = 32<br/>value = [29, 3]<br/>class = 0>, fillcolor="#e88e4d"] ;
195 -> 213 ;
214 [label=<gini = 0.0<br/>samples = 29<br/>value = [29, 0]<br/>class = 0>, fillcolor="#e58139"] ;
213 -> 214 ;
215 [label=<gini = 0.0<br/>samples = 3<br/>value = [0, 3]<br/>class = 1>, fillcolor="#399de5"] ;
213 -> 215 ;
216 [label=<TP3_std &le; -0.442<br/>gini = 0.437<br/>samples = 93<br/>value = [63, 30]<br/>class = 0>, fillcolor="#f1bd97"] ;
194 -> 216 ;
217 [label=<gini = 0.0<br/>samples = 63<br/>value = [63, 0]<br/>class = 0>, fillcolor="#e58139"] ;
216 -> 217 ;
218 [label=<gini = 0.0<br/>samples = 30<br/>value = [0, 30]<br/>class = 1>, fillcolor="#399de5"] ;
216 -> 218 ;
219 [label=<gini = 0.0<br/>samples = 67<br/>value = [67, 0]<br/>class = 0>, fillcolor="#e58139"] ;
193 -> 219 ;
220 [label=<H1_mean &le; 0.269<br/>gini = 0.376<br/>samples = 10545<br/>value = [7893, 2652]<br/>class = 0>, fillcolor="#eeab7c"] ;
176 -> 220 ;
221 [label=<H1_std &le; -0.358<br/>gini = 0.337<br/>samples = 8673<br/>value = [6814, 1859]<br/>class = 0>, fillcolor="#eca36f"] ;
220 -> 221 ;
222 [label=<TP3_std &le; -0.466<br/>gini = 0.496<br/>samples = 380<br/>value = [173, 207]<br/>class = 1>, fillcolor="#deeffb"] ;
221 -> 222 ;
223 [label=<Motor_current_std &le; -0.446<br/>gini = 0.261<br/>samples = 220<br/>value = [34, 186]<br/>class = 1>, fillcolor="#5dafea"] ;
222 -> 223 ;
224 [label=<Oil_temperature_mean &le; -1.261<br/>gini = 0.138<br/>samples = 201<br/>value = [15, 186]<br/>class = 1>, fillcolor="#49a5e7"] ;
223 -> 224 ;
225 [label=<Motor_current_max &le; -1.018<br/>gini = 0.332<br/>samples = 19<br/>value = [15, 4]<br/>class = 0>, fillcolor="#eca36e"] ;
224 -> 225 ;
226 [label=<gini = 0.0<br/>samples = 15<br/>value = [15, 0]<br/>class = 0>, fillcolor="#e58139"] ;
225 -> 226 ;
227 [label=<gini = 0.0<br/>samples = 4<br/>value = [0, 4]<br/>class = 1>, fillcolor="#399de5"] ;
225 -> 227 ;
228 [label=<gini = 0.0<br/>samples = 182<br/>value = [0, 182]<br/>class = 1>, fillcolor="#399de5"] ;
224 -> 228 ;
229 [label=<gini = 0.0<br/>samples = 19<br/>value = [19, 0]<br/>class = 0>, fillcolor="#e58139"] ;
223 -> 229 ;
230 [label=<Oil_temperature_min &le; -0.988<br/>gini = 0.228<br/>samples = 160<br/>value = [139, 21]<br/>class = 0>, fillcolor="#e99457"] ;
222 -> 230 ;
231 [label=<Motor_current_max &le; -1.018<br/>gini = 0.108<br/>samples = 139<br/>value = [131, 8]<br/>class = 0>, fillcolor="#e78945"] ;
230 -> 231 ;
232 [label=<TP3_max &le; -0.924<br/>gini = 0.03<br/>samples = 133<br/>value = [131, 2]<br/>class = 0>, fillcolor="#e5833c"] ;
231 -> 232 ;
233 [label=<gini = 0.0<br/>samples = 2<br/>value = [0, 2]<br/>class = 1>, fillcolor="#399de5"] ;
232 -> 233 ;
234 [label=<gini = 0.0<br/>samples = 131<br/>value = [131, 0]<br/>class = 0>, fillcolor="#e58139"] ;
232 -> 234 ;
235 [label=<gini = 0.0<br/>samples = 6<br/>value = [0, 6]<br/>class = 1>, fillcolor="#399de5"] ;
231 -> 235 ;
236 [label=<Oil_temperature_max &le; -1.069<br/>gini = 0.472<br/>samples = 21<br/>value = [8, 13]<br/>class = 1>, fillcolor="#b3d9f5"] ;
230 -> 236 ;
237 [label=<gini = 0.0<br/>samples = 13<br/>value = [0, 13]<br/>class = 1>, fillcolor="#399de5"] ;
236 -> 237 ;
238 [label=<gini = 0.0<br/>samples = 8<br/>value = [8, 0]<br/>class = 0>, fillcolor="#e58139"] ;
236 -> 238 ;
239 [label=<TP2_mean &le; -0.393<br/>gini = 0.319<br/>samples = 8293<br/>value = [6641, 1652]<br/>class = 0>, fillcolor="#eba06a"] ;
221 -> 239 ;
240 [label=<Motor_current_max &le; -1.018<br/>gini = 0.404<br/>samples = 3681<br/>value = [2646, 1035]<br/>class = 0>, fillcolor="#efb286"] ;
239 -> 240 ;
241 [label=<Oil_temperature_min &le; -0.993<br/>gini = 0.339<br/>samples = 2999<br/>value = [2351, 648]<br/>class = 0>, fillcolor="#eca470"] ;
240 -> 241 ;
242 [label=<Reservoirs_max &le; -1.012<br/>gini = 0.289<br/>samples = 2774<br/>value = [2287, 487]<br/>class = 0>, fillcolor="#eb9c63"] ;
241 -> 242 ;
243 [label=<TP3_max &le; -0.531<br/>gini = 0.27<br/>samples = 2716<br/>value = [2280, 436]<br/>class = 0>, fillcolor="#ea995f"] ;
242 -> 243 ;
244 [label=<Oil_temperature_std &le; -0.43<br/>gini = 0.226<br/>samples = 2464<br/>value = [2144, 320]<br/>class = 0>, fillcolor="#e99457"] ;
243 -> 244 ;
245 [label=<Oil_temperature_min &le; -1.493<br/>gini = 0.128<br/>samples = 1528<br/>value = [1423, 105]<br/>class = 0>, fillcolor="#e78a48"] ;
244 -> 245 ;
246 [label=<Reservoirs_std &le; -0.035<br/>gini = 0.461<br/>samples = 153<br/>value = [98, 55]<br/>class = 0>, fillcolor="#f4c8a8"] ;
245 -> 246 ;
247 [label=<gini = 0.0<br/>samples = 98<br/>value = [98, 0]<br/>class = 0>, fillcolor="#e58139"] ;
246 -> 247 ;
248 [label=<gini = 0.0<br/>samples = 55<br/>value = [0, 55]<br/>class = 1>, fillcolor="#399de5"] ;
246 -> 248 ;
249 [label=<Reservoirs_mean &le; -1.021<br/>gini = 0.07<br/>samples = 1375<br/>value = [1325, 50]<br/>class = 0>, fillcolor="#e68640"] ;
245 -> 249 ;
250 [label=<TP3_max &le; -0.547<br/>gini = 0.057<br/>samples = 1355<br/>value = [1315, 40]<br/>class = 0>, fillcolor="#e6853f"] ;
249 -> 250 ;
251 [label=<TP3_mean &le; -0.865<br/>gini = 0.046<br/>samples = 1317<br/>value = [1286, 31]<br/>class = 0>, fillcolor="#e6843e"] ;
250 -> 251 ;
252 [label=<Oil_temperature_min &le; -1.162<br/>gini = 0.23<br/>samples = 98<br/>value = [85, 13]<br/>class = 0>, fillcolor="#e99457"] ;
251 -> 252 ;
253 [label=<gini = 0.0<br/>samples = 71<br/>value = [71, 0]<br/>class = 0>, fillcolor="#e58139"] ;
252 -> 253 ;
254 [label=<Reservoirs_std &le; -0.09<br/>gini = 0.499<br/>samples = 27<br/>value = [14, 13]<br/>class = 0>, fillcolor="#fdf6f1"] ;
252 -> 254 ;
255 [label=<gini = 0.0<br/>samples = 14<br/>value = [14, 0]<br/>class = 0>, fillcolor="#e58139"] ;
254 -> 255 ;
256 [label=<gini = 0.0<br/>samples = 13<br/>value = [0, 13]<br/>class = 1>, fillcolor="#399de5"] ;
254 -> 256 ;
257 [label=<Flowmeter_min &le; -0.145<br/>gini = 0.029<br/>samples = 1219<br/>value = [1201, 18]<br/>class = 0>, fillcolor="#e5833c"] ;
251 -> 257 ;
258 [label=<TP3_std &le; -0.472<br/>gini = 0.156<br/>samples = 199<br/>value = [182, 17]<br/>class = 0>, fillcolor="#e78d4b"] ;
257 -> 258 ;
259 [label=<gini = 0.0<br/>samples = 182<br/>value = [182, 0]<br/>class = 0>, fillcolor="#e58139"] ;
258 -> 259 ;
260 [label=<gini = 0.0<br/>samples = 17<br/>value = [0, 17]<br/>class = 1>, fillcolor="#399de5"] ;
258 -> 260 ;
261 [label=<TP3_min &le; -0.394<br/>gini = 0.002<br/>samples = 1020<br/>value = [1019, 1]<br/>class = 0>, fillcolor="#e58139"] ;
257 -> 261 ;
262 [label=<gini = 0.0<br/>samples = 1007<br/>value = [1007, 0]<br/>class = 0>, fillcolor="#e58139"] ;
261 -> 262 ;
263 [label=<TP3_mean &le; -0.485<br/>gini = 0.142<br/>samples = 13<br/>value = [12, 1]<br/>class = 0>, fillcolor="#e78c49"] ;
261 -> 263 ;
264 [label=<gini = 0.0<br/>samples = 1<br/>value = [0, 1]<br/>class = 1>, fillcolor="#399de5"] ;
263 -> 264 ;
265 [label=<gini = 0.0<br/>samples = 12<br/>value = [12, 0]<br/>class = 0>, fillcolor="#e58139"] ;
263 -> 265 ;
266 [label=<DV_pressure_mean &le; -0.375<br/>gini = 0.361<br/>samples = 38<br/>value = [29, 9]<br/>class = 0>, fillcolor="#eda876"] ;
250 -> 266 ;
267 [label=<gini = 0.0<br/>samples = 9<br/>value = [0, 9]<br/>class = 1>, fillcolor="#399de5"] ;
266 -> 267 ;
268 [label=<gini = 0.0<br/>samples = 29<br/>value = [29, 0]<br/>class = 0>, fillcolor="#e58139"] ;
266 -> 268 ;
269 [label=<Flowmeter_max &le; -0.437<br/>gini = 0.5<br/>samples = 20<br/>value = [10, 10]<br/>class = 0>, fillcolor="#ffffff"] ;
249 -> 269 ;
270 [label=<gini = 0.0<br/>samples = 10<br/>value = [10, 0]<br/>class = 0>, fillcolor="#e58139"] ;
269 -> 270 ;
271 [label=<gini = 0.0<br/>samples = 10<br/>value = [0, 10]<br/>class = 1>, fillcolor="#399de5"] ;
269 -> 271 ;
272 [label=<TP2_std &le; -0.356<br/>gini = 0.354<br/>samples = 936<br/>value = [721, 215]<br/>class = 0>, fillcolor="#eda774"] ;
244 -> 272 ;
273 [label=<Flowmeter_max &le; -0.44<br/>gini = 0.489<br/>samples = 368<br/>value = [211, 157]<br/>class = 0>, fillcolor="#f8dfcc"] ;
272 -> 273 ;
274 [label=<Flowmeter_std &le; -0.4<br/>gini = 0.105<br/>samples = 126<br/>value = [119, 7]<br/>class = 0>, fillcolor="#e78845"] ;
273 -> 274 ;
275 [label=<gini = 0.0<br/>samples = 117<br/>value = [117, 0]<br/>class = 0>, fillcolor="#e58139"] ;
274 -> 275 ;
276 [label=<H1_max &le; -0.069<br/>gini = 0.346<br/>samples = 9<br/>value = [2, 7]<br/>class = 1>, fillcolor="#72b9ec"] ;
274 -> 276 ;
277 [label=<gini = 0.0<br/>samples = 2<br/>value = [2, 0]<br/>class = 0>, fillcolor="#e58139"] ;
276 -> 277 ;
278 [label=<gini = 0.0<br/>samples = 7<br/>value = [0, 7]<br/>class = 1>, fillcolor="#399de5"] ;
276 -> 278 ;
279 [label=<H1_min &le; 0.196<br/>gini = 0.471<br/>samples = 242<br/>value = [92, 150]<br/>class = 1>, fillcolor="#b2d9f5"] ;
273 -> 279 ;
280 [label=<gini = 0.0<br/>samples = 45<br/>value = [45, 0]<br/>class = 0>, fillcolor="#e58139"] ;
279 -> 280 ;
281 [label=<DV_pressure_mean &le; -0.379<br/>gini = 0.363<br/>samples = 197<br/>value = [47, 150]<br/>class = 1>, fillcolor="#77bced"] ;
279 -> 281 ;
282 [label=<TP3_min &le; -0.689<br/>gini = 0.239<br/>samples = 36<br/>value = [31, 5]<br/>class = 0>, fillcolor="#e99559"] ;
281 -> 282 ;
283 [label=<gini = 0.0<br/>samples = 5<br/>value = [0, 5]<br/>class = 1>, fillcolor="#399de5"] ;
282 -> 283 ;
284 [label=<gini = 0.0<br/>samples = 31<br/>value = [31, 0]<br/>class = 0>, fillcolor="#e58139"] ;
282 -> 284 ;
285 [label=<Oil_temperature_min &le; -1.421<br/>gini = 0.179<br/>samples = 161<br/>value = [16, 145]<br/>class = 1>, fillcolor="#4fa8e8"] ;
281 -> 285 ;
286 [label=<gini = 0.0<br/>samples = 11<br/>value = [11, 0]<br/>class = 0>, fillcolor="#e58139"] ;
285 -> 286 ;
287 [label=<Flowmeter_max &le; -0.431<br/>gini = 0.064<br/>samples = 150<br/>value = [5, 145]<br/>class = 1>, fillcolor="#40a0e6"] ;
285 -> 287 ;
288 [label=<gini = 0.0<br/>samples = 145<br/>value = [0, 145]<br/>class = 1>, fillcolor="#399de5"] ;
287 -> 288 ;
289 [label=<gini = 0.0<br/>samples = 5<br/>value = [5, 0]<br/>class = 0>, fillcolor="#e58139"] ;
287 -> 289 ;
290 [label=<Flowmeter_std &le; -0.403<br/>gini = 0.183<br/>samples = 568<br/>value = [510, 58]<br/>class = 0>, fillcolor="#e88f50"] ;
272 -> 290 ;
291 [label=<Oil_temperature_min &le; -1.373<br/>gini = 0.067<br/>samples = 461<br/>value = [445, 16]<br/>class = 0>, fillcolor="#e68640"] ;
290 -> 291 ;
292 [label=<H1_std &le; -0.351<br/>gini = 0.5<br/>samples = 10<br/>value = [5, 5]<br/>class = 0>, fillcolor="#ffffff"] ;
291 -> 292 ;
293 [label=<gini = 0.0<br/>samples = 5<br/>value = [0, 5]<br/>class = 1>, fillcolor="#399de5"] ;
292 -> 293 ;
294 [label=<gini = 0.0<br/>samples = 5<br/>value = [5, 0]<br/>class = 0>, fillcolor="#e58139"] ;
292 -> 294 ;
295 [label=<Oil_temperature_min &le; -1.009<br/>gini = 0.048<br/>samples = 451<br/>value = [440, 11]<br/>class = 0>, fillcolor="#e6843e"] ;
291 -> 295 ;
296 [label=<Oil_temperature_std &le; -0.419<br/>gini = 0.039<br/>samples = 449<br/>value = [440, 9]<br/>class = 0>, fillcolor="#e6843d"] ;
295 -> 296 ;
297 [label=<TP3_mean &le; -0.502<br/>gini = 0.283<br/>samples = 41<br/>value = [34, 7]<br/>class = 0>, fillcolor="#ea9b62"] ;
296 -> 297 ;
298 [label=<DV_pressure_max &le; -0.182<br/>gini = 0.056<br/>samples = 35<br/>value = [34, 1]<br/>class = 0>, fillcolor="#e6853f"] ;
297 -> 298 ;
299 [label=<gini = 0.0<br/>samples = 34<br/>value = [34, 0]<br/>class = 0>, fillcolor="#e58139"] ;
298 -> 299 ;
300 [label=<gini = 0.0<br/>samples = 1<br/>value = [0, 1]<br/>class = 1>, fillcolor="#399de5"] ;
298 -> 300 ;
301 [label=<gini = 0.0<br/>samples = 6<br/>value = [0, 6]<br/>class = 1>, fillcolor="#399de5"] ;
297 -> 301 ;
302 [label=<Reservoirs_mean &le; -1.086<br/>gini = 0.01<br/>samples = 408<br/>value = [406, 2]<br/>class = 0>, fillcolor="#e5823a"] ;
296 -> 302 ;
303 [label=<gini = 0.0<br/>samples = 1<br/>value = [0, 1]<br/>class = 1>, fillcolor="#399de5"] ;
302 -> 303 ;
304 [label=<Oil_temperature_std &le; -0.412<br/>gini = 0.005<br/>samples = 407<br/>value = [406, 1]<br/>class = 0>, fillcolor="#e58139"] ;
302 -> 304 ;
305 [label=<Oil_temperature_std &le; -0.412<br/>gini = 0.083<br/>samples = 23<br/>value = [22, 1]<br/>class = 0>, fillcolor="#e68742"] ;
304 -> 305 ;
306 [label=<gini = 0.0<br/>samples = 22<br/>value = [22, 0]<br/>class = 0>, fillcolor="#e58139"] ;
305 -> 306 ;
307 [label=<gini = 0.0<br/>samples = 1<br/>value = [0, 1]<br/>class = 1>, fillcolor="#399de5"] ;
305 -> 307 ;
308 [label=<gini = 0.0<br/>samples = 384<br/>value = [384, 0]<br/>class = 0>, fillcolor="#e58139"] ;
304 -> 308 ;
309 [label=<gini = 0.0<br/>samples = 2<br/>value = [0, 2]<br/>class = 1>, fillcolor="#399de5"] ;
295 -> 309 ;
310 [label=<Motor_current_mean &le; -0.97<br/>gini = 0.477<br/>samples = 107<br/>value = [65, 42]<br/>class = 0>, fillcolor="#f6d2b9"] ;
290 -> 310 ;
311 [label=<H1_std &le; -0.349<br/>gini = 0.051<br/>samples = 38<br/>value = [37, 1]<br/>class = 0>, fillcolor="#e6843e"] ;
310 -> 311 ;
312 [label=<gini = 0.0<br/>samples = 37<br/>value = [37, 0]<br/>class = 0>, fillcolor="#e58139"] ;
311 -> 312 ;
313 [label=<gini = 0.0<br/>samples = 1<br/>value = [0, 1]<br/>class = 1>, fillcolor="#399de5"] ;
311 -> 313 ;
314 [label=<DV_pressure_mean &le; -0.379<br/>gini = 0.482<br/>samples = 69<br/>value = [28, 41]<br/>class = 1>, fillcolor="#c0e0f7"] ;
310 -> 314 ;
315 [label=<gini = 0.0<br/>samples = 19<br/>value = [19, 0]<br/>class = 0>, fillcolor="#e58139"] ;
314 -> 315 ;
316 [label=<TP3_std &le; -0.479<br/>gini = 0.295<br/>samples = 50<br/>value = [9, 41]<br/>class = 1>, fillcolor="#64b3eb"] ;
314 -> 316 ;
317 [label=<gini = 0.0<br/>samples = 9<br/>value = [9, 0]<br/>class = 0>, fillcolor="#e58139"] ;
316 -> 317 ;
318 [label=<gini = 0.0<br/>samples = 41<br/>value = [0, 41]<br/>class = 1>, fillcolor="#399de5"] ;
316 -> 318 ;
319 [label=<Motor_current_mean &le; -0.97<br/>gini = 0.497<br/>samples = 252<br/>value = [136, 116]<br/>class = 0>, fillcolor="#fbece2"] ;
243 -> 319 ;
320 [label=<Motor_current_mean &le; -0.971<br/>gini = 0.398<br/>samples = 153<br/>value = [42, 111]<br/>class = 1>, fillcolor="#84c2ef"] ;
319 -> 320 ;
321 [label=<gini = 0.0<br/>samples = 31<br/>value = [31, 0]<br/>class = 0>, fillcolor="#e58139"] ;
320 -> 321 ;
322 [label=<Reservoirs_min &le; -1.09<br/>gini = 0.164<br/>samples = 122<br/>value = [11, 111]<br/>class = 1>, fillcolor="#4da7e8"] ;
320 -> 322 ;
323 [label=<gini = 0.0<br/>samples = 11<br/>value = [11, 0]<br/>class = 0>, fillcolor="#e58139"] ;
322 -> 323 ;
324 [label=<gini = 0.0<br/>samples = 111<br/>value = [0, 111]<br/>class = 1>, fillcolor="#399de5"] ;
322 -> 324 ;
325 [label=<Oil_temperature_std &le; -0.497<br/>gini = 0.096<br/>samples = 99<br/>value = [94, 5]<br/>class = 0>, fillcolor="#e68844"] ;
319 -> 325 ;
326 [label=<gini = 0.0<br/>samples = 5<br/>value = [0, 5]<br/>class = 1>, fillcolor="#399de5"] ;
325 -> 326 ;
327 [label=<gini = 0.0<br/>samples = 94<br/>value = [94, 0]<br/>class = 0>, fillcolor="#e58139"] ;
325 -> 327 ;
328 [label=<Flowmeter_std &le; -0.409<br/>gini = 0.212<br/>samples = 58<br/>value = [7, 51]<br/>class = 1>, fillcolor="#54aae9"] ;
242 -> 328 ;
329 [label=<gini = 0.0<br/>samples = 7<br/>value = [7, 0]<br/>class = 0>, fillcolor="#e58139"] ;
328 -> 329 ;
330 [label=<gini = 0.0<br/>samples = 51<br/>value = [0, 51]<br/>class = 1>, fillcolor="#399de5"] ;
328 -> 330 ;
331 [label=<Motor_current_mean &le; -0.97<br/>gini = 0.407<br/>samples = 225<br/>value = [64, 161]<br/>class = 1>, fillcolor="#88c4ef"] ;
241 -> 331 ;
332 [label=<Flowmeter_mean &le; -0.386<br/>gini = 0.282<br/>samples = 188<br/>value = [32, 156]<br/>class = 1>, fillcolor="#62b1ea"] ;
331 -> 332 ;
333 [label=<gini = 0.0<br/>samples = 23<br/>value = [23, 0]<br/>class = 0>, fillcolor="#e58139"] ;
332 -> 333 ;
334 [label=<Oil_temperature_std &le; -0.389<br/>gini = 0.103<br/>samples = 165<br/>value = [9, 156]<br/>class = 1>, fillcolor="#44a3e6"] ;
332 -> 334 ;
335 [label=<gini = 0.0<br/>samples = 154<br/>value = [0, 154]<br/>class = 1>, fillcolor="#399de5"] ;
334 -> 335 ;
336 [label=<Flowmeter_mean &le; -0.365<br/>gini = 0.298<br/>samples = 11<br/>value = [9, 2]<br/>class = 0>, fillcolor="#eb9d65"] ;
334 -> 336 ;
337 [label=<gini = 0.0<br/>samples = 2<br/>value = [0, 2]<br/>class = 1>, fillcolor="#399de5"] ;
336 -> 337 ;
338 [label=<gini = 0.0<br/>samples = 9<br/>value = [9, 0]<br/>class = 0>, fillcolor="#e58139"] ;
336 -> 338 ;
339 [label=<Oil_temperature_mean &le; -1.02<br/>gini = 0.234<br/>samples = 37<br/>value = [32, 5]<br/>class = 0>, fillcolor="#e99558"] ;
331 -> 339 ;
340 [label=<gini = 0.0<br/>samples = 32<br/>value = [32, 0]<br/>class = 0>, fillcolor="#e58139"] ;
339 -> 340 ;
341 [label=<gini = 0.0<br/>samples = 5<br/>value = [0, 5]<br/>class = 1>, fillcolor="#399de5"] ;
339 -> 341 ;
342 [label=<Oil_temperature_std &le; -0.48<br/>gini = 0.491<br/>samples = 682<br/>value = [295, 387]<br/>class = 1>, fillcolor="#d0e8f9"] ;
240 -> 342 ;
343 [label=<TP3_std &le; -0.451<br/>gini = 0.473<br/>samples = 406<br/>value = [250, 156]<br/>class = 0>, fillcolor="#f5d0b5"] ;
342 -> 343 ;
344 [label=<H1_min &le; 0.232<br/>gini = 0.025<br/>samples = 80<br/>value = [1, 79]<br/>class = 1>, fillcolor="#3c9ee5"] ;
343 -> 344 ;
345 [label=<gini = 0.0<br/>samples = 79<br/>value = [0, 79]<br/>class = 1>, fillcolor="#399de5"] ;
344 -> 345 ;
346 [label=<gini = 0.0<br/>samples = 1<br/>value = [1, 0]<br/>class = 0>, fillcolor="#e58139"] ;
344 -> 346 ;
347 [label=<H1_mean &le; 0.119<br/>gini = 0.361<br/>samples = 326<br/>value = [249, 77]<br/>class = 0>, fillcolor="#eda876"] ;
343 -> 347 ;
348 [label=<Reservoirs_mean &le; -1.022<br/>gini = 0.235<br/>samples = 287<br/>value = [248, 39]<br/>class = 0>, fillcolor="#e99558"] ;
347 -> 348 ;
349 [label=<gini = 0.0<br/>samples = 241<br/>value = [241, 0]<br/>class = 0>, fillcolor="#e58139"] ;
348 -> 349 ;
350 [label=<TP3_std &le; -0.439<br/>gini = 0.258<br/>samples = 46<br/>value = [7, 39]<br/>class = 1>, fillcolor="#5dafea"] ;
348 -> 350 ;
351 [label=<gini = 0.0<br/>samples = 39<br/>value = [0, 39]<br/>class = 1>, fillcolor="#399de5"] ;
350 -> 351 ;
352 [label=<gini = 0.0<br/>samples = 7<br/>value = [7, 0]<br/>class = 0>, fillcolor="#e58139"] ;
350 -> 352 ;
353 [label=<Oil_temperature_mean &le; -1.444<br/>gini = 0.05<br/>samples = 39<br/>value = [1, 38]<br/>class = 1>, fillcolor="#3ea0e6"] ;
347 -> 353 ;
354 [label=<gini = 0.0<br/>samples = 1<br/>value = [1, 0]<br/>class = 0>, fillcolor="#e58139"] ;
353 -> 354 ;
355 [label=<gini = 0.0<br/>samples = 38<br/>value = [0, 38]<br/>class = 1>, fillcolor="#399de5"] ;
353 -> 355 ;
356 [label=<H1_mean &le; 0.045<br/>gini = 0.273<br/>samples = 276<br/>value = [45, 231]<br/>class = 1>, fillcolor="#60b0ea"] ;
342 -> 356 ;
357 [label=<Oil_temperature_std &le; -0.412<br/>gini = 0.278<br/>samples = 30<br/>value = [25, 5]<br/>class = 0>, fillcolor="#ea9a61"] ;
356 -> 357 ;
358 [label=<gini = 0.0<br/>samples = 5<br/>value = [0, 5]<br/>class = 1>, fillcolor="#399de5"] ;
357 -> 358 ;
359 [label=<gini = 0.0<br/>samples = 25<br/>value = [25, 0]<br/>class = 0>, fillcolor="#e58139"] ;
357 -> 359 ;
360 [label=<TP3_std &le; -0.431<br/>gini = 0.149<br/>samples = 246<br/>value = [20, 226]<br/>class = 1>, fillcolor="#4ba6e7"] ;
356 -> 360 ;
361 [label=<DV_pressure_std &le; -0.178<br/>gini = 0.089<br/>samples = 236<br/>value = [11, 225]<br/>class = 1>, fillcolor="#43a2e6"] ;
360 -> 361 ;
362 [label=<Motor_current_std &le; -0.446<br/>gini = 0.051<br/>samples = 231<br/>value = [6, 225]<br/>class = 1>, fillcolor="#3ea0e6"] ;
361 -> 362 ;
363 [label=<TP3_std &le; -0.436<br/>gini = 0.026<br/>samples = 228<br/>value = [3, 225]<br/>class = 1>, fillcolor="#3c9ee5"] ;
362 -> 363 ;
364 [label=<gini = 0.0<br/>samples = 212<br/>value = [0, 212]<br/>class = 1>, fillcolor="#399de5"] ;
363 -> 364 ;
365 [label=<Reservoirs_max &le; -1.071<br/>gini = 0.305<br/>samples = 16<br/>value = [3, 13]<br/>class = 1>, fillcolor="#67b4eb"] ;
363 -> 365 ;
366 [label=<gini = 0.0<br/>samples = 3<br/>value = [3, 0]<br/>class = 0>, fillcolor="#e58139"] ;
365 -> 366 ;
367 [label=<gini = 0.0<br/>samples = 13<br/>value = [0, 13]<br/>class = 1>, fillcolor="#399de5"] ;
365 -> 367 ;
368 [label=<gini = 0.0<br/>samples = 3<br/>value = [3, 0]<br/>class = 0>, fillcolor="#e58139"] ;
362 -> 368 ;
369 [label=<gini = 0.0<br/>samples = 5<br/>value = [5, 0]<br/>class = 0>, fillcolor="#e58139"] ;
361 -> 369 ;
370 [label=<TP3_mean &le; -0.287<br/>gini = 0.18<br/>samples = 10<br/>value = [9, 1]<br/>class = 0>, fillcolor="#e88f4f"] ;
360 -> 370 ;
371 [label=<gini = 0.0<br/>samples = 9<br/>value = [9, 0]<br/>class = 0>, fillcolor="#e58139"] ;
370 -> 371 ;
372 [label=<gini = 0.0<br/>samples = 1<br/>value = [0, 1]<br/>class = 1>, fillcolor="#399de5"] ;
370 -> 372 ;
373 [label=<TP3_mean &le; -0.121<br/>gini = 0.232<br/>samples = 4612<br/>value = [3995, 617]<br/>class = 0>, fillcolor="#e99458"] ;
239 -> 373 ;
374 [label=<Reservoirs_mean &le; -1.088<br/>gini = 0.223<br/>samples = 4580<br/>value = [3995, 585]<br/>class = 0>, fillcolor="#e99356"] ;
373 -> 374 ;
375 [label=<Motor_current_mean &le; -0.97<br/>gini = 0.483<br/>samples = 86<br/>value = [35, 51]<br/>class = 1>, fillcolor="#c1e0f7"] ;
374 -> 375 ;
376 [label=<gini = 0.0<br/>samples = 51<br/>value = [0, 51]<br/>class = 1>, fillcolor="#399de5"] ;
375 -> 376 ;
377 [label=<gini = 0.0<br/>samples = 35<br/>value = [35, 0]<br/>class = 0>, fillcolor="#e58139"] ;
375 -> 377 ;
378 [label=<Reservoirs_mean &le; -1.068<br/>gini = 0.209<br/>samples = 4494<br/>value = [3960, 534]<br/>class = 0>, fillcolor="#e99254"] ;
374 -> 378 ;
379 [label=<H1_std &le; -0.351<br/>gini = 0.062<br/>samples = 1915<br/>value = [1854, 61]<br/>class = 0>, fillcolor="#e68540"] ;
378 -> 379 ;
380 [label=<TP3_std &le; -0.43<br/>gini = 0.034<br/>samples = 1779<br/>value = [1748, 31]<br/>class = 0>, fillcolor="#e5833d"] ;
379 -> 380 ;
381 [label=<H1_max &le; 0.09<br/>gini = 0.031<br/>samples = 1775<br/>value = [1747, 28]<br/>class = 0>, fillcolor="#e5833c"] ;
380 -> 381 ;
382 [label=<Oil_temperature_min &le; -1.189<br/>gini = 0.029<br/>samples = 1772<br/>value = [1746, 26]<br/>class = 0>, fillcolor="#e5833c"] ;
381 -> 382 ;
383 [label=<TP2_mean &le; -0.392<br/>gini = 0.117<br/>samples = 383<br/>value = [359, 24]<br/>class = 0>, fillcolor="#e78946"] ;
382 -> 383 ;
384 [label=<TP2_mean &le; -0.392<br/>gini = 0.006<br/>samples = 337<br/>value = [336, 1]<br/>class = 0>, fillcolor="#e5813a"] ;
383 -> 384 ;
385 [label=<gini = 0.0<br/>samples = 327<br/>value = [327, 0]<br/>class = 0>, fillcolor="#e58139"] ;
384 -> 385 ;
386 [label=<Motor_current_mean &le; -0.97<br/>gini = 0.18<br/>samples = 10<br/>value = [9, 1]<br/>class = 0>, fillcolor="#e88f4f"] ;
384 -> 386 ;
387 [label=<gini = 0.0<br/>samples = 9<br/>value = [9, 0]<br/>class = 0>, fillcolor="#e58139"] ;
386 -> 387 ;
388 [label=<gini = 0.0<br/>samples = 1<br/>value = [0, 1]<br/>class = 1>, fillcolor="#399de5"] ;
386 -> 388 ;
389 [label=<Motor_current_std &le; -0.446<br/>gini = 0.5<br/>samples = 46<br/>value = [23, 23]<br/>class = 0>, fillcolor="#ffffff"] ;
383 -> 389 ;
390 [label=<gini = 0.0<br/>samples = 23<br/>value = [0, 23]<br/>class = 1>, fillcolor="#399de5"] ;
389 -> 390 ;
391 [label=<gini = 0.0<br/>samples = 23<br/>value = [23, 0]<br/>class = 0>, fillcolor="#e58139"] ;
389 -> 391 ;
392 [label=<TP2_mean &le; -0.393<br/>gini = 0.003<br/>samples = 1389<br/>value = [1387, 2]<br/>class = 0>, fillcolor="#e58139"] ;
382 -> 392 ;
393 [label=<Oil_temperature_mean &le; -0.992<br/>gini = 0.153<br/>samples = 24<br/>value = [22, 2]<br/>class = 0>, fillcolor="#e78c4b"] ;
392 -> 393 ;
394 [label=<TP2_max &le; -0.446<br/>gini = 0.083<br/>samples = 23<br/>value = [22, 1]<br/>class = 0>, fillcolor="#e68742"] ;
393 -> 394 ;
395 [label=<gini = 0.5<br/>samples = 2<br/>value = [1, 1]<br/>class = 0>, fillcolor="#ffffff"] ;
394 -> 395 ;
396 [label=<gini = 0.0<br/>samples = 21<br/>value = [21, 0]<br/>class = 0>, fillcolor="#e58139"] ;
394 -> 396 ;
397 [label=<gini = 0.0<br/>samples = 1<br/>value = [0, 1]<br/>class = 1>, fillcolor="#399de5"] ;
393 -> 397 ;
398 [label=<gini = 0.0<br/>samples = 1365<br/>value = [1365, 0]<br/>class = 0>, fillcolor="#e58139"] ;
392 -> 398 ;
399 [label=<H1_std &le; -0.351<br/>gini = 0.444<br/>samples = 3<br/>value = [1, 2]<br/>class = 1>, fillcolor="#9ccef2"] ;
381 -> 399 ;
400 [label=<gini = 0.0<br/>samples = 1<br/>value = [1, 0]<br/>class = 0>, fillcolor="#e58139"] ;
399 -> 400 ;
401 [label=<gini = 0.0<br/>samples = 2<br/>value = [0, 2]<br/>class = 1>, fillcolor="#399de5"] ;
399 -> 401 ;
402 [label=<Flowmeter_min &le; 0.032<br/>gini = 0.375<br/>samples = 4<br/>value = [1, 3]<br/>class = 1>, fillcolor="#7bbeee"] ;
380 -> 402 ;
403 [label=<gini = 0.0<br/>samples = 3<br/>value = [0, 3]<br/>class = 1>, fillcolor="#399de5"] ;
402 -> 403 ;
404 [label=<gini = 0.0<br/>samples = 1<br/>value = [1, 0]<br/>class = 0>, fillcolor="#e58139"] ;
402 -> 404 ;
405 [label=<TP2_mean &le; -0.392<br/>gini = 0.344<br/>samples = 136<br/>value = [106, 30]<br/>class = 0>, fillcolor="#eca571"] ;
379 -> 405 ;
406 [label=<gini = 0.0<br/>samples = 90<br/>value = [90, 0]<br/>class = 0>, fillcolor="#e58139"] ;
405 -> 406 ;
407 [label=<TP3_min &le; -0.305<br/>gini = 0.454<br/>samples = 46<br/>value = [16, 30]<br/>class = 1>, fillcolor="#a3d1f3"] ;
405 -> 407 ;
408 [label=<gini = 0.0<br/>samples = 16<br/>value = [16, 0]<br/>class = 0>, fillcolor="#e58139"] ;
407 -> 408 ;
409 [label=<gini = 0.0<br/>samples = 30<br/>value = [0, 30]<br/>class = 1>, fillcolor="#399de5"] ;
407 -> 409 ;
410 [label=<DV_pressure_std &le; -0.179<br/>gini = 0.3<br/>samples = 2579<br/>value = [2106, 473]<br/>class = 0>, fillcolor="#eb9d65"] ;
378 -> 410 ;
411 [label=<H1_std &le; -0.357<br/>gini = 0.084<br/>samples = 1188<br/>value = [1136, 52]<br/>class = 0>, fillcolor="#e68742"] ;
410 -> 411 ;
412 [label=<Oil_temperature_mean &le; -1.355<br/>gini = 0.32<br/>samples = 10<br/>value = [2, 8]<br/>class = 1>, fillcolor="#6ab6ec"] ;
411 -> 412 ;
413 [label=<gini = 0.0<br/>samples = 2<br/>value = [2, 0]<br/>class = 0>, fillcolor="#e58139"] ;
412 -> 413 ;
414 [label=<gini = 0.0<br/>samples = 8<br/>value = [0, 8]<br/>class = 1>, fillcolor="#399de5"] ;
412 -> 414 ;
415 [label=<Oil_temperature_std &le; -0.601<br/>gini = 0.072<br/>samples = 1178<br/>value = [1134, 44]<br/>class = 0>, fillcolor="#e68641"] ;
411 -> 415 ;
416 [label=<gini = 0.0<br/>samples = 6<br/>value = [0, 6]<br/>class = 1>, fillcolor="#399de5"] ;
415 -> 416 ;
417 [label=<H1_std &le; -0.353<br/>gini = 0.063<br/>samples = 1172<br/>value = [1134, 38]<br/>class = 0>, fillcolor="#e68540"] ;
415 -> 417 ;
418 [label=<Flowmeter_mean &le; -0.35<br/>gini = 0.201<br/>samples = 274<br/>value = [243, 31]<br/>class = 0>, fillcolor="#e89152"] ;
417 -> 418 ;
419 [label=<Oil_temperature_mean &le; -1.133<br/>gini = 0.07<br/>samples = 249<br/>value = [240, 9]<br/>class = 0>, fillcolor="#e68640"] ;
418 -> 419 ;
420 [label=<gini = 0.0<br/>samples = 238<br/>value = [238, 0]<br/>class = 0>, fillcolor="#e58139"] ;
419 -> 420 ;
421 [label=<Reservoirs_std &le; -0.108<br/>gini = 0.298<br/>samples = 11<br/>value = [2, 9]<br/>class = 1>, fillcolor="#65b3eb"] ;
419 -> 421 ;
422 [label=<gini = 0.0<br/>samples = 2<br/>value = [2, 0]<br/>class = 0>, fillcolor="#e58139"] ;
421 -> 422 ;
423 [label=<gini = 0.0<br/>samples = 9<br/>value = [0, 9]<br/>class = 1>, fillcolor="#399de5"] ;
421 -> 423 ;
424 [label=<TP2_min &le; -0.251<br/>gini = 0.211<br/>samples = 25<br/>value = [3, 22]<br/>class = 1>, fillcolor="#54aae9"] ;
418 -> 424 ;
425 [label=<gini = 0.0<br/>samples = 3<br/>value = [3, 0]<br/>class = 0>, fillcolor="#e58139"] ;
424 -> 425 ;
426 [label=<gini = 0.0<br/>samples = 22<br/>value = [0, 22]<br/>class = 1>, fillcolor="#399de5"] ;
424 -> 426 ;
427 [label=<Oil_temperature_mean &le; -1.009<br/>gini = 0.015<br/>samples = 898<br/>value = [891, 7]<br/>class = 0>, fillcolor="#e5823b"] ;
417 -> 427 ;
428 [label=<Flowmeter_std &le; -0.411<br/>gini = 0.011<br/>samples = 895<br/>value = [890, 5]<br/>class = 0>, fillcolor="#e5823a"] ;
427 -> 428 ;
429 [label=<Motor_current_mean &le; -0.97<br/>gini = 0.191<br/>samples = 28<br/>value = [25, 3]<br/>class = 0>, fillcolor="#e89051"] ;
428 -> 429 ;
430 [label=<gini = 0.0<br/>samples = 3<br/>value = [0, 3]<br/>class = 1>, fillcolor="#399de5"] ;
429 -> 430 ;
431 [label=<gini = 0.0<br/>samples = 25<br/>value = [25, 0]<br/>class = 0>, fillcolor="#e58139"] ;
429 -> 431 ;
432 [label=<Flowmeter_std &le; -0.4<br/>gini = 0.005<br/>samples = 867<br/>value = [865, 2]<br/>class = 0>, fillcolor="#e58139"] ;
428 -> 432 ;
433 [label=<Flowmeter_std &le; -0.402<br/>gini = 0.002<br/>samples = 825<br/>value = [824, 1]<br/>class = 0>, fillcolor="#e58139"] ;
432 -> 433 ;
434 [label=<gini = 0.0<br/>samples = 695<br/>value = [695, 0]<br/>class = 0>, fillcolor="#e58139"] ;
433 -> 434 ;
435 [label=<Flowmeter_std &le; -0.402<br/>gini = 0.015<br/>samples = 130<br/>value = [129, 1]<br/>class = 0>, fillcolor="#e5823b"] ;
433 -> 435 ;
436 [label=<DV_pressure_std &le; -0.18<br/>gini = 0.375<br/>samples = 4<br/>value = [3, 1]<br/>class = 0>, fillcolor="#eeab7b"] ;
435 -> 436 ;
437 [label=<gini = 0.0<br/>samples = 3<br/>value = [3, 0]<br/>class = 0>, fillcolor="#e58139"] ;
436 -> 437 ;
438 [label=<gini = 0.0<br/>samples = 1<br/>value = [0, 1]<br/>class = 1>, fillcolor="#399de5"] ;
436 -> 438 ;
439 [label=<gini = 0.0<br/>samples = 126<br/>value = [126, 0]<br/>class = 0>, fillcolor="#e58139"] ;
435 -> 439 ;
440 [label=<DV_pressure_min &le; -1.271<br/>gini = 0.046<br/>samples = 42<br/>value = [41, 1]<br/>class = 0>, fillcolor="#e6843e"] ;
432 -> 440 ;
441 [label=<gini = 0.0<br/>samples = 1<br/>value = [0, 1]<br/>class = 1>, fillcolor="#399de5"] ;
440 -> 441 ;
442 [label=<gini = 0.0<br/>samples = 41<br/>value = [41, 0]<br/>class = 0>, fillcolor="#e58139"] ;
440 -> 442 ;
443 [label=<Oil_temperature_mean &le; -0.983<br/>gini = 0.444<br/>samples = 3<br/>value = [1, 2]<br/>class = 1>, fillcolor="#9ccef2"] ;
427 -> 443 ;
444 [label=<gini = 0.0<br/>samples = 2<br/>value = [0, 2]<br/>class = 1>, fillcolor="#399de5"] ;
443 -> 444 ;
445 [label=<gini = 0.0<br/>samples = 1<br/>value = [1, 0]<br/>class = 0>, fillcolor="#e58139"] ;
443 -> 445 ;
446 [label=<Flowmeter_mean &le; -0.381<br/>gini = 0.422<br/>samples = 1391<br/>value = [970, 421]<br/>class = 0>, fillcolor="#f0b88f"] ;
410 -> 446 ;
447 [label=<DV_pressure_std &le; -0.178<br/>gini = 0.115<br/>samples = 672<br/>value = [631, 41]<br/>class = 0>, fillcolor="#e78946"] ;
446 -> 447 ;
448 [label=<Motor_current_std &le; -0.446<br/>gini = 0.076<br/>samples = 657<br/>value = [631, 26]<br/>class = 0>, fillcolor="#e68641"] ;
447 -> 448 ;
449 [label=<Reservoirs_min &le; -1.071<br/>gini = 0.051<br/>samples = 648<br/>value = [631, 17]<br/>class = 0>, fillcolor="#e6843e"] ;
448 -> 449 ;
450 [label=<DV_pressure_std &le; -0.178<br/>gini = 0.496<br/>samples = 22<br/>value = [10, 12]<br/>class = 1>, fillcolor="#deeffb"] ;
449 -> 450 ;
451 [label=<gini = 0.0<br/>samples = 12<br/>value = [0, 12]<br/>class = 1>, fillcolor="#399de5"] ;
450 -> 451 ;
452 [label=<gini = 0.0<br/>samples = 10<br/>value = [10, 0]<br/>class = 0>, fillcolor="#e58139"] ;
450 -> 452 ;
453 [label=<Flowmeter_std &le; -0.409<br/>gini = 0.016<br/>samples = 626<br/>value = [621, 5]<br/>class = 0>, fillcolor="#e5823b"] ;
449 -> 453 ;
454 [label=<TP2_mean &le; -0.393<br/>gini = 0.42<br/>samples = 10<br/>value = [7, 3]<br/>class = 0>, fillcolor="#f0b78e"] ;
453 -> 454 ;
455 [label=<gini = 0.0<br/>samples = 3<br/>value = [0, 3]<br/>class = 1>, fillcolor="#399de5"] ;
454 -> 455 ;
456 [label=<gini = 0.0<br/>samples = 7<br/>value = [7, 0]<br/>class = 0>, fillcolor="#e58139"] ;
454 -> 456 ;
457 [label=<TP3_std &le; -0.43<br/>gini = 0.006<br/>samples = 616<br/>value = [614, 2]<br/>class = 0>, fillcolor="#e5813a"] ;
453 -> 457 ;
458 [label=<DV_pressure_std &le; -0.178<br/>gini = 0.003<br/>samples = 614<br/>value = [613, 1]<br/>class = 0>, fillcolor="#e58139"] ;
457 -> 458 ;
459 [label=<gini = 0.0<br/>samples = 586<br/>value = [586, 0]<br/>class = 0>, fillcolor="#e58139"] ;
458 -> 459 ;
460 [label=<Oil_temperature_std &le; -0.529<br/>gini = 0.069<br/>samples = 28<br/>value = [27, 1]<br/>class = 0>, fillcolor="#e68640"] ;
458 -> 460 ;
461 [label=<gini = 0.0<br/>samples = 1<br/>value = [0, 1]<br/>class = 1>, fillcolor="#399de5"] ;
460 -> 461 ;
462 [label=<gini = 0.0<br/>samples = 27<br/>value = [27, 0]<br/>class = 0>, fillcolor="#e58139"] ;
460 -> 462 ;
463 [label=<gini = 0.5<br/>samples = 2<br/>value = [1, 1]<br/>class = 0>, fillcolor="#ffffff"] ;
457 -> 463 ;
464 [label=<gini = 0.0<br/>samples = 9<br/>value = [0, 9]<br/>class = 1>, fillcolor="#399de5"] ;
448 -> 464 ;
465 [label=<gini = 0.0<br/>samples = 15<br/>value = [0, 15]<br/>class = 1>, fillcolor="#399de5"] ;
447 -> 465 ;
466 [label=<Motor_current_max &le; -1.018<br/>gini = 0.498<br/>samples = 719<br/>value = [339, 380]<br/>class = 1>, fillcolor="#eaf4fc"] ;
446 -> 466 ;
467 [label=<Flowmeter_mean &le; -0.36<br/>gini = 0.439<br/>samples = 500<br/>value = [337, 163]<br/>class = 0>, fillcolor="#f2be99"] ;
466 -> 467 ;
468 [label=<Flowmeter_mean &le; -0.38<br/>gini = 0.316<br/>samples = 396<br/>value = [318, 78]<br/>class = 0>, fillcolor="#eba06a"] ;
467 -> 468 ;
469 [label=<TP3_std &le; -0.458<br/>gini = 0.375<br/>samples = 56<br/>value = [14, 42]<br/>class = 1>, fillcolor="#7bbeee"] ;
468 -> 469 ;
470 [label=<gini = 0.0<br/>samples = 14<br/>value = [14, 0]<br/>class = 0>, fillcolor="#e58139"] ;
469 -> 470 ;
471 [label=<gini = 0.0<br/>samples = 42<br/>value = [0, 42]<br/>class = 1>, fillcolor="#399de5"] ;
469 -> 471 ;
472 [label=<Oil_temperature_mean &le; -1.551<br/>gini = 0.189<br/>samples = 340<br/>value = [304, 36]<br/>class = 0>, fillcolor="#e89050"] ;
468 -> 472 ;
473 [label=<gini = 0.0<br/>samples = 18<br/>value = [0, 18]<br/>class = 1>, fillcolor="#399de5"] ;
472 -> 473 ;
474 [label=<Flowmeter_std &le; -0.401<br/>gini = 0.106<br/>samples = 322<br/>value = [304, 18]<br/>class = 0>, fillcolor="#e78845"] ;
472 -> 474 ;
475 [label=<Flowmeter_max &le; -0.42<br/>gini = 0.056<br/>samples = 312<br/>value = [303, 9]<br/>class = 0>, fillcolor="#e6853f"] ;
474 -> 475 ;
476 [label=<Flowmeter_max &le; -0.422<br/>gini = 0.038<br/>samples = 309<br/>value = [303, 6]<br/>class = 0>, fillcolor="#e6833d"] ;
475 -> 476 ;
477 [label=<TP3_std &le; -0.435<br/>gini = 0.013<br/>samples = 295<br/>value = [293, 2]<br/>class = 0>, fillcolor="#e5823a"] ;
476 -> 477 ;
478 [label=<gini = 0.0<br/>samples = 275<br/>value = [275, 0]<br/>class = 0>, fillcolor="#e58139"] ;
477 -> 478 ;
479 [label=<TP3_std &le; -0.434<br/>gini = 0.18<br/>samples = 20<br/>value = [18, 2]<br/>class = 0>, fillcolor="#e88f4f"] ;
477 -> 479 ;
480 [label=<gini = 0.0<br/>samples = 2<br/>value = [0, 2]<br/>class = 1>, fillcolor="#399de5"] ;
479 -> 480 ;
481 [label=<gini = 0.0<br/>samples = 18<br/>value = [18, 0]<br/>class = 0>, fillcolor="#e58139"] ;
479 -> 481 ;
482 [label=<TP3_min &le; -0.468<br/>gini = 0.408<br/>samples = 14<br/>value = [10, 4]<br/>class = 0>, fillcolor="#efb388"] ;
476 -> 482 ;
483 [label=<gini = 0.0<br/>samples = 10<br/>value = [10, 0]<br/>class = 0>, fillcolor="#e58139"] ;
482 -> 483 ;
484 [label=<gini = 0.0<br/>samples = 4<br/>value = [0, 4]<br/>class = 1>, fillcolor="#399de5"] ;
482 -> 484 ;
485 [label=<gini = 0.0<br/>samples = 3<br/>value = [0, 3]<br/>class = 1>, fillcolor="#399de5"] ;
475 -> 485 ;
486 [label=<DV_pressure_mean &le; -0.371<br/>gini = 0.18<br/>samples = 10<br/>value = [1, 9]<br/>class = 1>, fillcolor="#4fa8e8"] ;
474 -> 486 ;
487 [label=<gini = 0.0<br/>samples = 1<br/>value = [1, 0]<br/>class = 0>, fillcolor="#e58139"] ;
486 -> 487 ;
488 [label=<gini = 0.0<br/>samples = 9<br/>value = [0, 9]<br/>class = 1>, fillcolor="#399de5"] ;
486 -> 488 ;
489 [label=<DV_pressure_max &le; -0.182<br/>gini = 0.299<br/>samples = 104<br/>value = [19, 85]<br/>class = 1>, fillcolor="#65b3eb"] ;
467 -> 489 ;
490 [label=<gini = 0.0<br/>samples = 85<br/>value = [0, 85]<br/>class = 1>, fillcolor="#399de5"] ;
489 -> 490 ;
491 [label=<gini = 0.0<br/>samples = 19<br/>value = [19, 0]<br/>class = 0>, fillcolor="#e58139"] ;
489 -> 491 ;
492 [label=<H1_min &le; 0.189<br/>gini = 0.018<br/>samples = 219<br/>value = [2, 217]<br/>class = 1>, fillcolor="#3b9ee5"] ;
466 -> 492 ;
493 [label=<gini = 0.0<br/>samples = 2<br/>value = [2, 0]<br/>class = 0>, fillcolor="#e58139"] ;
492 -> 493 ;
494 [label=<gini = 0.0<br/>samples = 217<br/>value = [0, 217]<br/>class = 1>, fillcolor="#399de5"] ;
492 -> 494 ;
495 [label=<gini = 0.0<br/>samples = 32<br/>value = [0, 32]<br/>class = 1>, fillcolor="#399de5"] ;
373 -> 495 ;
496 [label=<Motor_current_mean &le; -0.97<br/>gini = 0.488<br/>samples = 1872<br/>value = [1079, 793]<br/>class = 0>, fillcolor="#f8decb"] ;
220 -> 496 ;
497 [label=<DV_pressure_mean &le; -0.362<br/>gini = 0.358<br/>samples = 1342<br/>value = [1029, 313]<br/>class = 0>, fillcolor="#eda775"] ;
496 -> 497 ;
498 [label=<Motor_current_std &le; -0.446<br/>gini = 0.192<br/>samples = 177<br/>value = [19, 158]<br/>class = 1>, fillcolor="#51a9e8"] ;
497 -> 498 ;
499 [label=<gini = 0.0<br/>samples = 14<br/>value = [14, 0]<br/>class = 0>, fillcolor="#e58139"] ;
498 -> 499 ;
500 [label=<Motor_current_min &le; -0.838<br/>gini = 0.059<br/>samples = 163<br/>value = [5, 158]<br/>class = 1>, fillcolor="#3fa0e6"] ;
498 -> 500 ;
501 [label=<gini = 0.0<br/>samples = 5<br/>value = [5, 0]<br/>class = 0>, fillcolor="#e58139"] ;
500 -> 501 ;
502 [label=<gini = 0.0<br/>samples = 158<br/>value = [0, 158]<br/>class = 1>, fillcolor="#399de5"] ;
500 -> 502 ;
503 [label=<Motor_current_mean &le; -0.97<br/>gini = 0.231<br/>samples = 1165<br/>value = [1010, 155]<br/>class = 0>, fillcolor="#e99457"] ;
497 -> 503 ;
504 [label=<Oil_temperature_min &le; -0.87<br/>gini = 0.041<br/>samples = 853<br/>value = [835, 18]<br/>class = 0>, fillcolor="#e6843d"] ;
503 -> 504 ;
505 [label=<DV_pressure_mean &le; -0.361<br/>gini = 0.035<br/>samples = 849<br/>value = [834, 15]<br/>class = 0>, fillcolor="#e5833d"] ;
504 -> 505 ;
506 [label=<Flowmeter_mean &le; -0.4<br/>gini = 0.408<br/>samples = 21<br/>value = [15, 6]<br/>class = 0>, fillcolor="#efb388"] ;
505 -> 506 ;
507 [label=<gini = 0.0<br/>samples = 5<br/>value = [0, 5]<br/>class = 1>, fillcolor="#399de5"] ;
506 -> 507 ;
508 [label=<Reservoirs_mean &le; -1.037<br/>gini = 0.117<br/>samples = 16<br/>value = [15, 1]<br/>class = 0>, fillcolor="#e78946"] ;
506 -> 508 ;
509 [label=<gini = 0.0<br/>samples = 15<br/>value = [15, 0]<br/>class = 0>, fillcolor="#e58139"] ;
508 -> 509 ;
510 [label=<gini = 0.0<br/>samples = 1<br/>value = [0, 1]<br/>class = 1>, fillcolor="#399de5"] ;
508 -> 510 ;
511 [label=<Motor_current_mean &le; -0.97<br/>gini = 0.022<br/>samples = 828<br/>value = [819, 9]<br/>class = 0>, fillcolor="#e5823b"] ;
505 -> 511 ;
512 [label=<gini = 0.0<br/>samples = 768<br/>value = [768, 0]<br/>class = 0>, fillcolor="#e58139"] ;
511 -> 512 ;
513 [label=<Reservoirs_mean &le; -1.067<br/>gini = 0.255<br/>samples = 60<br/>value = [51, 9]<br/>class = 0>, fillcolor="#ea975c"] ;
511 -> 513 ;
514 [label=<DV_pressure_mean &le; -0.329<br/>gini = 0.038<br/>samples = 52<br/>value = [51, 1]<br/>class = 0>, fillcolor="#e6833d"] ;
513 -> 514 ;
515 [label=<gini = 0.0<br/>samples = 51<br/>value = [51, 0]<br/>class = 0>, fillcolor="#e58139"] ;
514 -> 515 ;
516 [label=<gini = 0.0<br/>samples = 1<br/>value = [0, 1]<br/>class = 1>, fillcolor="#399de5"] ;
514 -> 516 ;
517 [label=<gini = 0.0<br/>samples = 8<br/>value = [0, 8]<br/>class = 1>, fillcolor="#399de5"] ;
513 -> 517 ;
518 [label=<Reservoirs_min &le; -1.051<br/>gini = 0.375<br/>samples = 4<br/>value = [1, 3]<br/>class = 1>, fillcolor="#7bbeee"] ;
504 -> 518 ;
519 [label=<gini = 0.0<br/>samples = 3<br/>value = [0, 3]<br/>class = 1>, fillcolor="#399de5"] ;
518 -> 519 ;
520 [label=<gini = 0.0<br/>samples = 1<br/>value = [1, 0]<br/>class = 0>, fillcolor="#e58139"] ;
518 -> 520 ;
521 [label=<Reservoirs_mean &le; -1.076<br/>gini = 0.493<br/>samples = 312<br/>value = [175, 137]<br/>class = 0>, fillcolor="#f9e4d4"] ;
503 -> 521 ;
522 [label=<TP2_std &le; -0.356<br/>gini = 0.061<br/>samples = 126<br/>value = [4, 122]<br/>class = 1>, fillcolor="#3fa0e6"] ;
521 -> 522 ;
523 [label=<gini = 0.0<br/>samples = 4<br/>value = [4, 0]<br/>class = 0>, fillcolor="#e58139"] ;
522 -> 523 ;
524 [label=<gini = 0.0<br/>samples = 122<br/>value = [0, 122]<br/>class = 1>, fillcolor="#399de5"] ;
522 -> 524 ;
525 [label=<Oil_temperature_max &le; -1.46<br/>gini = 0.148<br/>samples = 186<br/>value = [171, 15]<br/>class = 0>, fillcolor="#e78c4a"] ;
521 -> 525 ;
526 [label=<gini = 0.0<br/>samples = 10<br/>value = [0, 10]<br/>class = 1>, fillcolor="#399de5"] ;
525 -> 526 ;
527 [label=<Flowmeter_std &le; -0.411<br/>gini = 0.055<br/>samples = 176<br/>value = [171, 5]<br/>class = 0>, fillcolor="#e6853f"] ;
525 -> 527 ;
528 [label=<gini = 0.0<br/>samples = 5<br/>value = [0, 5]<br/>class = 1>, fillcolor="#399de5"] ;
527 -> 528 ;
529 [label=<gini = 0.0<br/>samples = 171<br/>value = [171, 0]<br/>class = 0>, fillcolor="#e58139"] ;
527 -> 529 ;
530 [label=<TP3_std &le; -0.436<br/>gini = 0.171<br/>samples = 530<br/>value = [50, 480]<br/>class = 1>, fillcolor="#4ea7e8"] ;
496 -> 530 ;
531 [label=<H1_std &le; -0.348<br/>gini = 0.013<br/>samples = 458<br/>value = [3, 455]<br/>class = 1>, fillcolor="#3a9ee5"] ;
530 -> 531 ;
532 [label=<gini = 0.0<br/>samples = 455<br/>value = [0, 455]<br/>class = 1>, fillcolor="#399de5"] ;
531 -> 532 ;
533 [label=<gini = 0.0<br/>samples = 3<br/>value = [3, 0]<br/>class = 0>, fillcolor="#e58139"] ;
531 -> 533 ;
534 [label=<TP2_mean &le; -0.392<br/>gini = 0.453<br/>samples = 72<br/>value = [47, 25]<br/>class = 0>, fillcolor="#f3c4a2"] ;
530 -> 534 ;
535 [label=<gini = 0.0<br/>samples = 25<br/>value = [0, 25]<br/>class = 1>, fillcolor="#399de5"] ;
534 -> 535 ;
536 [label=<gini = 0.0<br/>samples = 47<br/>value = [47, 0]<br/>class = 0>, fillcolor="#e58139"] ;
534 -> 536 ;
537 [label=<TP3_mean &le; -0.62<br/>gini = 0.49<br/>samples = 802<br/>value = [345, 457]<br/>class = 1>, fillcolor="#cee7f9"] ;
175 -> 537 ;
538 [label=<TP2_std &le; -0.356<br/>gini = 0.071<br/>samples = 218<br/>value = [210, 8]<br/>class = 0>, fillcolor="#e68641"] ;
537 -> 538 ;
539 [label=<gini = 0.0<br/>samples = 5<br/>value = [0, 5]<br/>class = 1>, fillcolor="#399de5"] ;
538 -> 539 ;
540 [label=<Flowmeter_std &le; -0.401<br/>gini = 0.028<br/>samples = 213<br/>value = [210, 3]<br/>class = 0>, fillcolor="#e5833c"] ;
538 -> 540 ;
541 [label=<TP2_mean &le; -0.393<br/>gini = 0.01<br/>samples = 207<br/>value = [206, 1]<br/>class = 0>, fillcolor="#e5823a"] ;
540 -> 541 ;
542 [label=<Oil_temperature_mean &le; -1.546<br/>gini = 0.245<br/>samples = 7<br/>value = [6, 1]<br/>class = 0>, fillcolor="#e9965a"] ;
541 -> 542 ;
543 [label=<gini = 0.0<br/>samples = 6<br/>value = [6, 0]<br/>class = 0>, fillcolor="#e58139"] ;
542 -> 543 ;
544 [label=<gini = 0.0<br/>samples = 1<br/>value = [0, 1]<br/>class = 1>, fillcolor="#399de5"] ;
542 -> 544 ;
545 [label=<gini = 0.0<br/>samples = 200<br/>value = [200, 0]<br/>class = 0>, fillcolor="#e58139"] ;
541 -> 545 ;
546 [label=<Reservoirs_max &le; -1.032<br/>gini = 0.444<br/>samples = 6<br/>value = [4, 2]<br/>class = 0>, fillcolor="#f2c09c"] ;
540 -> 546 ;
547 [label=<gini = 0.0<br/>samples = 4<br/>value = [4, 0]<br/>class = 0>, fillcolor="#e58139"] ;
546 -> 547 ;
548 [label=<gini = 0.0<br/>samples = 2<br/>value = [0, 2]<br/>class = 1>, fillcolor="#399de5"] ;
546 -> 548 ;
549 [label=<Oil_temperature_min &le; -1.091<br/>gini = 0.355<br/>samples = 584<br/>value = [135, 449]<br/>class = 1>, fillcolor="#75baed"] ;
537 -> 549 ;
550 [label=<Reservoirs_std &le; -0.251<br/>gini = 0.233<br/>samples = 506<br/>value = [68, 438]<br/>class = 1>, fillcolor="#58ace9"] ;
549 -> 550 ;
551 [label=<gini = 0.0<br/>samples = 44<br/>value = [44, 0]<br/>class = 0>, fillcolor="#e58139"] ;
550 -> 551 ;
552 [label=<DV_pressure_mean &le; -0.341<br/>gini = 0.098<br/>samples = 462<br/>value = [24, 438]<br/>class = 1>, fillcolor="#44a2e6"] ;
550 -> 552 ;
553 [label=<TP3_std &le; -0.452<br/>gini = 0.035<br/>samples = 446<br/>value = [8, 438]<br/>class = 1>, fillcolor="#3d9fe5"] ;
552 -> 553 ;
554 [label=<gini = 0.0<br/>samples = 8<br/>value = [8, 0]<br/>class = 0>, fillcolor="#e58139"] ;
553 -> 554 ;
555 [label=<gini = 0.0<br/>samples = 438<br/>value = [0, 438]<br/>class = 1>, fillcolor="#399de5"] ;
553 -> 555 ;
556 [label=<gini = 0.0<br/>samples = 16<br/>value = [16, 0]<br/>class = 0>, fillcolor="#e58139"] ;
552 -> 556 ;
557 [label=<TP3_std &le; -0.447<br/>gini = 0.242<br/>samples = 78<br/>value = [67, 11]<br/>class = 0>, fillcolor="#e9965a"] ;
549 -> 557 ;
558 [label=<gini = 0.0<br/>samples = 11<br/>value = [0, 11]<br/>class = 1>, fillcolor="#399de5"] ;
557 -> 558 ;
559 [label=<gini = 0.0<br/>samples = 67<br/>value = [67, 0]<br/>class = 0>, fillcolor="#e58139"] ;
557 -> 559 ;
560 [label=<TP3_min &le; 0.128<br/>gini = 0.129<br/>samples = 18204<br/>value = [16947, 1257]<br/>class = 0>, fillcolor="#e78a48"] ;
138 -> 560 ;
561 [label=<H1_std &le; -0.346<br/>gini = 0.112<br/>samples = 18012<br/>value = [16935, 1077]<br/>class = 0>, fillcolor="#e78946"] ;
560 -> 561 ;
562 [label=<H1_mean &le; 0.299<br/>gini = 0.081<br/>samples = 16486<br/>value = [15790, 696]<br/>class = 0>, fillcolor="#e68742"] ;
561 -> 562 ;
563 [label=<Oil_temperature_min &le; -0.92<br/>gini = 0.07<br/>samples = 16214<br/>value = [15627, 587]<br/>class = 0>, fillcolor="#e68640"] ;
562 -> 563 ;
564 [label=<Reservoirs_std &le; -0.029<br/>gini = 0.065<br/>samples = 16133<br/>value = [15591, 542]<br/>class = 0>, fillcolor="#e68540"] ;
563 -> 564 ;
565 [label=<Motor_current_mean &le; -0.97<br/>gini = 0.052<br/>samples = 15571<br/>value = [15158, 413]<br/>class = 0>, fillcolor="#e6843e"] ;
564 -> 565 ;
566 [label=<Oil_temperature_std &le; -0.447<br/>gini = 0.298<br/>samples = 576<br/>value = [471, 105]<br/>class = 0>, fillcolor="#eb9d65"] ;
565 -> 566 ;
567 [label=<Reservoirs_mean &le; -1.048<br/>gini = 0.128<br/>samples = 378<br/>value = [352, 26]<br/>class = 0>, fillcolor="#e78a48"] ;
566 -> 567 ;
568 [label=<TP2_mean &le; -0.392<br/>gini = 0.059<br/>samples = 363<br/>value = [352, 11]<br/>class = 0>, fillcolor="#e6853f"] ;
567 -> 568 ;
569 [label=<Flowmeter_min &le; -0.138<br/>gini = 0.011<br/>samples = 354<br/>value = [352, 2]<br/>class = 0>, fillcolor="#e5823a"] ;
568 -> 569 ;
570 [label=<Oil_temperature_mean &le; -1.399<br/>gini = 0.142<br/>samples = 26<br/>value = [24, 2]<br/>class = 0>, fillcolor="#e78c49"] ;
569 -> 570 ;
571 [label=<gini = 0.0<br/>samples = 24<br/>value = [24, 0]<br/>class = 0>, fillcolor="#e58139"] ;
570 -> 571 ;
572 [label=<gini = 0.0<br/>samples = 2<br/>value = [0, 2]<br/>class = 1>, fillcolor="#399de5"] ;
570 -> 572 ;
573 [label=<gini = 0.0<br/>samples = 328<br/>value = [328, 0]<br/>class = 0>, fillcolor="#e58139"] ;
569 -> 573 ;
574 [label=<gini = 0.0<br/>samples = 9<br/>value = [0, 9]<br/>class = 1>, fillcolor="#399de5"] ;
568 -> 574 ;
575 [label=<gini = 0.0<br/>samples = 15<br/>value = [0, 15]<br/>class = 1>, fillcolor="#399de5"] ;
567 -> 575 ;
576 [label=<Reservoirs_std &le; -0.087<br/>gini = 0.48<br/>samples = 198<br/>value = [119, 79]<br/>class = 0>, fillcolor="#f6d5bc"] ;
566 -> 576 ;
577 [label=<TP2_std &le; -0.356<br/>gini = 0.288<br/>samples = 103<br/>value = [85, 18]<br/>class = 0>, fillcolor="#eb9c63"] ;
576 -> 577 ;
578 [label=<DV_pressure_std &le; -0.181<br/>gini = 0.057<br/>samples = 68<br/>value = [66, 2]<br/>class = 0>, fillcolor="#e6853f"] ;
577 -> 578 ;
579 [label=<gini = 0.5<br/>samples = 2<br/>value = [1, 1]<br/>class = 0>, fillcolor="#ffffff"] ;
578 -> 579 ;
580 [label=<TP3_std &le; -0.392<br/>gini = 0.03<br/>samples = 66<br/>value = [65, 1]<br/>class = 0>, fillcolor="#e5833c"] ;
578 -> 580 ;
581 [label=<gini = 0.0<br/>samples = 62<br/>value = [62, 0]<br/>class = 0>, fillcolor="#e58139"] ;
580 -> 581 ;
582 [label=<Flowmeter_std &le; -0.406<br/>gini = 0.375<br/>samples = 4<br/>value = [3, 1]<br/>class = 0>, fillcolor="#eeab7b"] ;
580 -> 582 ;
583 [label=<gini = 0.0<br/>samples = 1<br/>value = [0, 1]<br/>class = 1>, fillcolor="#399de5"] ;
582 -> 583 ;
584 [label=<gini = 0.0<br/>samples = 3<br/>value = [3, 0]<br/>class = 0>, fillcolor="#e58139"] ;
582 -> 584 ;
585 [label=<TP2_mean &le; -0.392<br/>gini = 0.496<br/>samples = 35<br/>value = [19, 16]<br/>class = 0>, fillcolor="#fbebe0"] ;
577 -> 585 ;
586 [label=<gini = 0.0<br/>samples = 14<br/>value = [0, 14]<br/>class = 1>, fillcolor="#399de5"] ;
585 -> 586 ;
587 [label=<Oil_temperature_mean &le; -1.021<br/>gini = 0.172<br/>samples = 21<br/>value = [19, 2]<br/>class = 0>, fillcolor="#e88e4e"] ;
585 -> 587 ;
588 [label=<gini = 0.0<br/>samples = 19<br/>value = [19, 0]<br/>class = 0>, fillcolor="#e58139"] ;
587 -> 588 ;
589 [label=<gini = 0.0<br/>samples = 2<br/>value = [0, 2]<br/>class = 1>, fillcolor="#399de5"] ;
587 -> 589 ;
590 [label=<TP3_mean &le; -0.493<br/>gini = 0.46<br/>samples = 95<br/>value = [34, 61]<br/>class = 1>, fillcolor="#a7d4f3"] ;
576 -> 590 ;
591 [label=<TP2_mean &le; -0.393<br/>gini = 0.35<br/>samples = 31<br/>value = [24, 7]<br/>class = 0>, fillcolor="#eda673"] ;
590 -> 591 ;
592 [label=<gini = 0.0<br/>samples = 7<br/>value = [0, 7]<br/>class = 1>, fillcolor="#399de5"] ;
591 -> 592 ;
593 [label=<gini = 0.0<br/>samples = 24<br/>value = [24, 0]<br/>class = 0>, fillcolor="#e58139"] ;
591 -> 593 ;
594 [label=<Flowmeter_std &le; -0.408<br/>gini = 0.264<br/>samples = 64<br/>value = [10, 54]<br/>class = 1>, fillcolor="#5eafea"] ;
590 -> 594 ;
595 [label=<gini = 0.0<br/>samples = 9<br/>value = [9, 0]<br/>class = 0>, fillcolor="#e58139"] ;
594 -> 595 ;
596 [label=<Oil_temperature_max &le; -1.135<br/>gini = 0.036<br/>samples = 55<br/>value = [1, 54]<br/>class = 1>, fillcolor="#3d9fe5"] ;
594 -> 596 ;
597 [label=<gini = 0.0<br/>samples = 54<br/>value = [0, 54]<br/>class = 1>, fillcolor="#399de5"] ;
596 -> 597 ;
598 [label=<gini = 0.0<br/>samples = 1<br/>value = [1, 0]<br/>class = 0>, fillcolor="#e58139"] ;
596 -> 598 ;
599 [label=<Reservoirs_max &le; -1.032<br/>gini = 0.04<br/>samples = 14995<br/>value = [14687, 308]<br/>class = 0>, fillcolor="#e6843d"] ;
565 -> 599 ;
600 [label=<Reservoirs_mean &le; -1.077<br/>gini = 0.018<br/>samples = 12385<br/>value = [12273, 112]<br/>class = 0>, fillcolor="#e5823b"] ;
599 -> 600 ;
601 [label=<TP2_mean &le; -0.393<br/>gini = 0.272<br/>samples = 154<br/>value = [129, 25]<br/>class = 0>, fillcolor="#ea995f"] ;
600 -> 601 ;
602 [label=<Oil_temperature_min &le; -1.176<br/>gini = 0.499<br/>samples = 48<br/>value = [23, 25]<br/>class = 1>, fillcolor="#eff7fd"] ;
601 -> 602 ;
603 [label=<gini = 0.0<br/>samples = 23<br/>value = [23, 0]<br/>class = 0>, fillcolor="#e58139"] ;
602 -> 603 ;
604 [label=<gini = 0.0<br/>samples = 25<br/>value = [0, 25]<br/>class = 1>, fillcolor="#399de5"] ;
602 -> 604 ;
605 [label=<gini = 0.0<br/>samples = 106<br/>value = [106, 0]<br/>class = 0>, fillcolor="#e58139"] ;
601 -> 605 ;
606 [label=<H1_min &le; 0.381<br/>gini = 0.014<br/>samples = 12231<br/>value = [12144, 87]<br/>class = 0>, fillcolor="#e5823a"] ;
600 -> 606 ;
607 [label=<TP3_std &le; -0.421<br/>gini = 0.012<br/>samples = 12180<br/>value = [12104, 76]<br/>class = 0>, fillcolor="#e5823a"] ;
606 -> 607 ;
608 [label=<H1_max &le; 0.056<br/>gini = 0.065<br/>samples = 1668<br/>value = [1612, 56]<br/>class = 0>, fillcolor="#e68540"] ;
607 -> 608 ;
609 [label=<TP2_std &le; -0.355<br/>gini = 0.036<br/>samples = 1625<br/>value = [1595, 30]<br/>class = 0>, fillcolor="#e5833d"] ;
608 -> 609 ;
610 [label=<TP3_min &le; -0.447<br/>gini = 0.028<br/>samples = 1608<br/>value = [1585, 23]<br/>class = 0>, fillcolor="#e5833c"] ;
609 -> 610 ;
611 [label=<gini = 0.0<br/>samples = 1348<br/>value = [1348, 0]<br/>class = 0>, fillcolor="#e58139"] ;
610 -> 611 ;
612 [label=<Reservoirs_mean &le; -1.045<br/>gini = 0.161<br/>samples = 260<br/>value = [237, 23]<br/>class = 0>, fillcolor="#e88d4c"] ;
610 -> 612 ;
613 [label=<Flowmeter_mean &le; -0.366<br/>gini = 0.085<br/>samples = 248<br/>value = [237, 11]<br/>class = 0>, fillcolor="#e68742"] ;
612 -> 613 ;
614 [label=<Motor_current_mean &le; -0.97<br/>gini = 0.32<br/>samples = 10<br/>value = [2, 8]<br/>class = 1>, fillcolor="#6ab6ec"] ;
613 -> 614 ;
615 [label=<gini = 0.0<br/>samples = 2<br/>value = [2, 0]<br/>class = 0>, fillcolor="#e58139"] ;
614 -> 615 ;
616 [label=<gini = 0.0<br/>samples = 8<br/>value = [0, 8]<br/>class = 1>, fillcolor="#399de5"] ;
614 -> 616 ;
617 [label=<Reservoirs_min &le; -1.051<br/>gini = 0.025<br/>samples = 238<br/>value = [235, 3]<br/>class = 0>, fillcolor="#e5833c"] ;
613 -> 617 ;
618 [label=<gini = 0.0<br/>samples = 231<br/>value = [231, 0]<br/>class = 0>, fillcolor="#e58139"] ;
617 -> 618 ;
619 [label=<Flowmeter_std &le; -0.406<br/>gini = 0.49<br/>samples = 7<br/>value = [4, 3]<br/>class = 0>, fillcolor="#f8e0ce"] ;
617 -> 619 ;
620 [label=<gini = 0.0<br/>samples = 3<br/>value = [0, 3]<br/>class = 1>, fillcolor="#399de5"] ;
619 -> 620 ;
621 [label=<gini = 0.0<br/>samples = 4<br/>value = [4, 0]<br/>class = 0>, fillcolor="#e58139"] ;
619 -> 621 ;
622 [label=<gini = 0.0<br/>samples = 12<br/>value = [0, 12]<br/>class = 1>, fillcolor="#399de5"] ;
612 -> 622 ;
623 [label=<DV_pressure_std &le; -0.179<br/>gini = 0.484<br/>samples = 17<br/>value = [10, 7]<br/>class = 0>, fillcolor="#f7d9c4"] ;
609 -> 623 ;
624 [label=<gini = 0.0<br/>samples = 10<br/>value = [10, 0]<br/>class = 0>, fillcolor="#e58139"] ;
623 -> 624 ;
625 [label=<gini = 0.0<br/>samples = 7<br/>value = [0, 7]<br/>class = 1>, fillcolor="#399de5"] ;
623 -> 625 ;
626 [label=<Flowmeter_std &le; -0.403<br/>gini = 0.478<br/>samples = 43<br/>value = [17, 26]<br/>class = 1>, fillcolor="#baddf6"] ;
608 -> 626 ;
627 [label=<gini = 0.0<br/>samples = 26<br/>value = [0, 26]<br/>class = 1>, fillcolor="#399de5"] ;
626 -> 627 ;
628 [label=<gini = 0.0<br/>samples = 17<br/>value = [17, 0]<br/>class = 0>, fillcolor="#e58139"] ;
626 -> 628 ;
629 [label=<Oil_temperature_mean &le; -0.989<br/>gini = 0.004<br/>samples = 10512<br/>value = [10492, 20]<br/>class = 0>, fillcolor="#e58139"] ;
607 -> 629 ;
630 [label=<TP3_max &le; -0.047<br/>gini = 0.004<br/>samples = 10511<br/>value = [10492, 19]<br/>class = 0>, fillcolor="#e58139"] ;
629 -> 630 ;
631 [label=<Flowmeter_mean &le; -0.384<br/>gini = 0.003<br/>samples = 10510<br/>value = [10492, 18]<br/>class = 0>, fillcolor="#e58139"] ;
630 -> 631 ;
632 [label=<Reservoirs_mean &le; -1.049<br/>gini = 0.32<br/>samples = 25<br/>value = [20, 5]<br/>class = 0>, fillcolor="#eca06a"] ;
631 -> 632 ;
633 [label=<gini = 0.0<br/>samples = 20<br/>value = [20, 0]<br/>class = 0>, fillcolor="#e58139"] ;
632 -> 633 ;
634 [label=<gini = 0.0<br/>samples = 5<br/>value = [0, 5]<br/>class = 1>, fillcolor="#399de5"] ;
632 -> 634 ;
635 [label=<H1_max &le; 0.107<br/>gini = 0.002<br/>samples = 10485<br/>value = [10472, 13]<br/>class = 0>, fillcolor="#e58139"] ;
631 -> 635 ;
636 [label=<Oil_temperature_min &le; -0.928<br/>gini = 0.002<br/>samples = 10283<br/>value = [10275, 8]<br/>class = 0>, fillcolor="#e58139"] ;
635 -> 636 ;
637 [label=<TP2_mean &le; -0.393<br/>gini = 0.001<br/>samples = 10263<br/>value = [10256, 7]<br/>class = 0>, fillcolor="#e58139"] ;
636 -> 637 ;
638 [label=<H1_min &le; 0.287<br/>gini = 0.039<br/>samples = 50<br/>value = [49, 1]<br/>class = 0>, fillcolor="#e6843d"] ;
637 -> 638 ;
639 [label=<gini = 0.0<br/>samples = 49<br/>value = [49, 0]<br/>class = 0>, fillcolor="#e58139"] ;
638 -> 639 ;
640 [label=<gini = 0.0<br/>samples = 1<br/>value = [0, 1]<br/>class = 1>, fillcolor="#399de5"] ;
638 -> 640 ;
641 [label=<Reservoirs_std &le; -0.09<br/>gini = 0.001<br/>samples = 10213<br/>value = [10207, 6]<br/>class = 0>, fillcolor="#e58139"] ;
637 -> 641 ;
642 [label=<TP3_std &le; -0.418<br/>gini = 0.0<br/>samples = 9159<br/>value = [9157, 2]<br/>class = 0>, fillcolor="#e58139"] ;
641 -> 642 ;
643 [label=<TP3_std &le; -0.418<br/>gini = 0.005<br/>samples = 373<br/>value = [372, 1]<br/>class = 0>, fillcolor="#e5813a"] ;
642 -> 643 ;
644 [label=<gini = 0.0<br/>samples = 370<br/>value = [370, 0]<br/>class = 0>, fillcolor="#e58139"] ;
643 -> 644 ;
645 [label=<Oil_temperature_mean &le; -1.414<br/>gini = 0.444<br/>samples = 3<br/>value = [2, 1]<br/>class = 0>, fillcolor="#f2c09c"] ;
643 -> 645 ;
646 [label=<gini = 0.0<br/>samples = 2<br/>value = [2, 0]<br/>class = 0>, fillcolor="#e58139"] ;
645 -> 646 ;
647 [label=<gini = 0.0<br/>samples = 1<br/>value = [0, 1]<br/>class = 1>, fillcolor="#399de5"] ;
645 -> 647 ;
648 [label=<H1_std &le; -0.347<br/>gini = 0.0<br/>samples = 8786<br/>value = [8785, 1]<br/>class = 0>, fillcolor="#e58139"] ;
642 -> 648 ;
649 [label=<gini = 0.0<br/>samples = 7552<br/>value = [7552, 0]<br/>class = 0>, fillcolor="#e58139"] ;
648 -> 649 ;
650 [label=<TP3_std &le; -0.402<br/>gini = 0.002<br/>samples = 1234<br/>value = [1233, 1]<br/>class = 0>, fillcolor="#e58139"] ;
648 -> 650 ;
651 [label=<gini = 0.0<br/>samples = 1<br/>value = [0, 1]<br/>class = 1>, fillcolor="#399de5"] ;
650 -> 651 ;
652 [label=<gini = 0.0<br/>samples = 1233<br/>value = [1233, 0]<br/>class = 0>, fillcolor="#e58139"] ;
650 -> 652 ;
653 [label=<TP3_mean &le; -0.169<br/>gini = 0.008<br/>samples = 1054<br/>value = [1050, 4]<br/>class = 0>, fillcolor="#e5813a"] ;
641 -> 653 ;
654 [label=<H1_max &le; 0.086<br/>gini = 0.002<br/>samples = 987<br/>value = [986, 1]<br/>class = 0>, fillcolor="#e58139"] ;
653 -> 654 ;
655 [label=<gini = 0.0<br/>samples = 984<br/>value = [984, 0]<br/>class = 0>, fillcolor="#e58139"] ;
654 -> 655 ;
656 [label=<DV_pressure_std &le; -0.18<br/>gini = 0.444<br/>samples = 3<br/>value = [2, 1]<br/>class = 0>, fillcolor="#f2c09c"] ;
654 -> 656 ;
657 [label=<gini = 0.0<br/>samples = 1<br/>value = [0, 1]<br/>class = 1>, fillcolor="#399de5"] ;
656 -> 657 ;
658 [label=<gini = 0.0<br/>samples = 2<br/>value = [2, 0]<br/>class = 0>, fillcolor="#e58139"] ;
656 -> 658 ;
659 [label=<Oil_temperature_std &le; -0.445<br/>gini = 0.086<br/>samples = 67<br/>value = [64, 3]<br/>class = 0>, fillcolor="#e68742"] ;
653 -> 659 ;
660 [label=<gini = 0.0<br/>samples = 3<br/>value = [0, 3]<br/>class = 1>, fillcolor="#399de5"] ;
659 -> 660 ;
661 [label=<gini = 0.0<br/>samples = 64<br/>value = [64, 0]<br/>class = 0>, fillcolor="#e58139"] ;
659 -> 661 ;
662 [label=<Flowmeter_mean &le; -0.363<br/>gini = 0.095<br/>samples = 20<br/>value = [19, 1]<br/>class = 0>, fillcolor="#e68843"] ;
636 -> 662 ;
663 [label=<gini = 0.0<br/>samples = 1<br/>value = [0, 1]<br/>class = 1>, fillcolor="#399de5"] ;
662 -> 663 ;
664 [label=<gini = 0.0<br/>samples = 19<br/>value = [19, 0]<br/>class = 0>, fillcolor="#e58139"] ;
662 -> 664 ;
665 [label=<TP2_mean &le; -0.392<br/>gini = 0.048<br/>samples = 202<br/>value = [197, 5]<br/>class = 0>, fillcolor="#e6843e"] ;
635 -> 665 ;
666 [label=<gini = 0.0<br/>samples = 5<br/>value = [0, 5]<br/>class = 1>, fillcolor="#399de5"] ;
665 -> 666 ;
667 [label=<gini = 0.0<br/>samples = 197<br/>value = [197, 0]<br/>class = 0>, fillcolor="#e58139"] ;
665 -> 667 ;
668 [label=<gini = 0.0<br/>samples = 1<br/>value = [0, 1]<br/>class = 1>, fillcolor="#399de5"] ;
630 -> 668 ;
669 [label=<gini = 0.0<br/>samples = 1<br/>value = [0, 1]<br/>class = 1>, fillcolor="#399de5"] ;
629 -> 669 ;
670 [label=<TP2_min &le; -0.251<br/>gini = 0.338<br/>samples = 51<br/>value = [40, 11]<br/>class = 0>, fillcolor="#eca46f"] ;
606 -> 670 ;
671 [label=<gini = 0.0<br/>samples = 11<br/>value = [0, 11]<br/>class = 1>, fillcolor="#399de5"] ;
670 -> 671 ;
672 [label=<gini = 0.0<br/>samples = 40<br/>value = [40, 0]<br/>class = 0>, fillcolor="#e58139"] ;
670 -> 672 ;
673 [label=<Motor_current_std &le; -0.447<br/>gini = 0.139<br/>samples = 2610<br/>value = [2414, 196]<br/>class = 0>, fillcolor="#e78b49"] ;
599 -> 673 ;
674 [label=<TP2_mean &le; -0.393<br/>gini = 0.433<br/>samples = 507<br/>value = [346, 161]<br/>class = 0>, fillcolor="#f1bc95"] ;
673 -> 674 ;
675 [label=<gini = 0.0<br/>samples = 162<br/>value = [162, 0]<br/>class = 0>, fillcolor="#e58139"] ;
674 -> 675 ;
676 [label=<H1_std &le; -0.348<br/>gini = 0.498<br/>samples = 345<br/>value = [184, 161]<br/>class = 0>, fillcolor="#fcefe6"] ;
674 -> 676 ;
677 [label=<Reservoirs_mean &le; -1.003<br/>gini = 0.421<br/>samples = 229<br/>value = [69, 160]<br/>class = 1>, fillcolor="#8ec7f0"] ;
676 -> 677 ;
678 [label=<H1_std &le; -0.352<br/>gini = 0.217<br/>samples = 178<br/>value = [22, 156]<br/>class = 1>, fillcolor="#55abe9"] ;
677 -> 678 ;
679 [label=<gini = 0.0<br/>samples = 15<br/>value = [15, 0]<br/>class = 0>, fillcolor="#e58139"] ;
678 -> 679 ;
680 [label=<Reservoirs_mean &le; -1.039<br/>gini = 0.082<br/>samples = 163<br/>value = [7, 156]<br/>class = 1>, fillcolor="#42a1e6"] ;
678 -> 680 ;
681 [label=<gini = 0.0<br/>samples = 6<br/>value = [6, 0]<br/>class = 0>, fillcolor="#e58139"] ;
680 -> 681 ;
682 [label=<TP3_mean &le; -0.324<br/>gini = 0.013<br/>samples = 157<br/>value = [1, 156]<br/>class = 1>, fillcolor="#3a9ee5"] ;
680 -> 682 ;
683 [label=<gini = 0.0<br/>samples = 156<br/>value = [0, 156]<br/>class = 1>, fillcolor="#399de5"] ;
682 -> 683 ;
684 [label=<gini = 0.0<br/>samples = 1<br/>value = [1, 0]<br/>class = 0>, fillcolor="#e58139"] ;
682 -> 684 ;
685 [label=<Motor_current_std &le; -0.448<br/>gini = 0.145<br/>samples = 51<br/>value = [47, 4]<br/>class = 0>, fillcolor="#e78c4a"] ;
677 -> 685 ;
686 [label=<gini = 0.0<br/>samples = 4<br/>value = [0, 4]<br/>class = 1>, fillcolor="#399de5"] ;
685 -> 686 ;
687 [label=<gini = 0.0<br/>samples = 47<br/>value = [47, 0]<br/>class = 0>, fillcolor="#e58139"] ;
685 -> 687 ;
688 [label=<TP3_mean &le; -0.695<br/>gini = 0.017<br/>samples = 116<br/>value = [115, 1]<br/>class = 0>, fillcolor="#e5823b"] ;
676 -> 688 ;
689 [label=<gini = 0.0<br/>samples = 1<br/>value = [0, 1]<br/>class = 1>, fillcolor="#399de5"] ;
688 -> 689 ;
690 [label=<gini = 0.0<br/>samples = 115<br/>value = [115, 0]<br/>class = 0>, fillcolor="#e58139"] ;
688 -> 690 ;
691 [label=<Oil_temperature_min &le; -1.007<br/>gini = 0.033<br/>samples = 2103<br/>value = [2068, 35]<br/>class = 0>, fillcolor="#e5833c"] ;
673 -> 691 ;
692 [label=<TP2_mean &le; -0.393<br/>gini = 0.022<br/>samples = 2091<br/>value = [2068, 23]<br/>class = 0>, fillcolor="#e5823b"] ;
691 -> 692 ;
693 [label=<gini = 0.0<br/>samples = 7<br/>value = [0, 7]<br/>class = 1>, fillcolor="#399de5"] ;
692 -> 693 ;
694 [label=<H1_min &le; 0.382<br/>gini = 0.015<br/>samples = 2084<br/>value = [2068, 16]<br/>class = 0>, fillcolor="#e5823b"] ;
692 -> 694 ;
695 [label=<TP3_std &le; -0.43<br/>gini = 0.01<br/>samples = 2060<br/>value = [2050, 10]<br/>class = 0>, fillcolor="#e5823a"] ;
694 -> 695 ;
696 [label=<gini = 0.5<br/>samples = 2<br/>value = [1, 1]<br/>class = 0>, fillcolor="#ffffff"] ;
695 -> 696 ;
697 [label=<DV_pressure_mean &le; -0.363<br/>gini = 0.009<br/>samples = 2058<br/>value = [2049, 9]<br/>class = 0>, fillcolor="#e5823a"] ;
695 -> 697 ;
698 [label=<Motor_current_std &le; -0.447<br/>gini = 0.067<br/>samples = 259<br/>value = [250, 9]<br/>class = 0>, fillcolor="#e68640"] ;
697 -> 698 ;
699 [label=<Reservoirs_mean &le; -1.007<br/>gini = 0.488<br/>samples = 19<br/>value = [11, 8]<br/>class = 0>, fillcolor="#f8ddc9"] ;
698 -> 699 ;
700 [label=<gini = 0.0<br/>samples = 8<br/>value = [0, 8]<br/>class = 1>, fillcolor="#399de5"] ;
699 -> 700 ;
701 [label=<gini = 0.0<br/>samples = 11<br/>value = [11, 0]<br/>class = 0>, fillcolor="#e58139"] ;
699 -> 701 ;
702 [label=<DV_pressure_std &le; -0.181<br/>gini = 0.008<br/>samples = 240<br/>value = [239, 1]<br/>class = 0>, fillcolor="#e5823a"] ;
698 -> 702 ;
703 [label=<gini = 0.0<br/>samples = 1<br/>value = [0, 1]<br/>class = 1>, fillcolor="#399de5"] ;
702 -> 703 ;
704 [label=<gini = 0.0<br/>samples = 239<br/>value = [239, 0]<br/>class = 0>, fillcolor="#e58139"] ;
702 -> 704 ;
705 [label=<gini = 0.0<br/>samples = 1799<br/>value = [1799, 0]<br/>class = 0>, fillcolor="#e58139"] ;
697 -> 705 ;
706 [label=<Oil_temperature_mean &le; -1.743<br/>gini = 0.375<br/>samples = 24<br/>value = [18, 6]<br/>class = 0>, fillcolor="#eeab7b"] ;
694 -> 706 ;
707 [label=<gini = 0.0<br/>samples = 6<br/>value = [0, 6]<br/>class = 1>, fillcolor="#399de5"] ;
706 -> 707 ;
708 [label=<gini = 0.0<br/>samples = 18<br/>value = [18, 0]<br/>class = 0>, fillcolor="#e58139"] ;
706 -> 708 ;
709 [label=<gini = 0.0<br/>samples = 12<br/>value = [0, 12]<br/>class = 1>, fillcolor="#399de5"] ;
691 -> 709 ;
710 [label=<H1_max &le; 0.062<br/>gini = 0.354<br/>samples = 562<br/>value = [433, 129]<br/>class = 0>, fillcolor="#eda774"] ;
564 -> 710 ;
711 [label=<TP3_mean &le; -0.768<br/>gini = 0.292<br/>samples = 525<br/>value = [432, 93]<br/>class = 0>, fillcolor="#eb9c64"] ;
710 -> 711 ;
712 [label=<Reservoirs_std &le; -0.022<br/>gini = 0.266<br/>samples = 38<br/>value = [6, 32]<br/>class = 1>, fillcolor="#5eafea"] ;
711 -> 712 ;
713 [label=<gini = 0.0<br/>samples = 5<br/>value = [5, 0]<br/>class = 0>, fillcolor="#e58139"] ;
712 -> 713 ;
714 [label=<TP3_max &le; -0.899<br/>gini = 0.059<br/>samples = 33<br/>value = [1, 32]<br/>class = 1>, fillcolor="#3fa0e6"] ;
712 -> 714 ;
715 [label=<gini = 0.0<br/>samples = 1<br/>value = [1, 0]<br/>class = 0>, fillcolor="#e58139"] ;
714 -> 715 ;
716 [label=<gini = 0.0<br/>samples = 32<br/>value = [0, 32]<br/>class = 1>, fillcolor="#399de5"] ;
714 -> 716 ;
717 [label=<H1_min &le; 0.297<br/>gini = 0.219<br/>samples = 487<br/>value = [426, 61]<br/>class = 0>, fillcolor="#e99355"] ;
711 -> 717 ;
718 [label=<H1_max &le; -0.128<br/>gini = 0.094<br/>samples = 383<br/>value = [364, 19]<br/>class = 0>, fillcolor="#e68843"] ;
717 -> 718 ;
719 [label=<Motor_current_mean &le; -0.97<br/>gini = 0.459<br/>samples = 14<br/>value = [5, 9]<br/>class = 1>, fillcolor="#a7d3f3"] ;
718 -> 719 ;
720 [label=<gini = 0.0<br/>samples = 5<br/>value = [5, 0]<br/>class = 0>, fillcolor="#e58139"] ;
719 -> 720 ;
721 [label=<gini = 0.0<br/>samples = 9<br/>value = [0, 9]<br/>class = 1>, fillcolor="#399de5"] ;
719 -> 721 ;
722 [label=<DV_pressure_std &le; -0.182<br/>gini = 0.053<br/>samples = 369<br/>value = [359, 10]<br/>class = 0>, fillcolor="#e6853f"] ;
718 -> 722 ;
723 [label=<TP2_std &le; -0.355<br/>gini = 0.32<br/>samples = 5<br/>value = [1, 4]<br/>class = 1>, fillcolor="#6ab6ec"] ;
722 -> 723 ;
724 [label=<gini = 0.0<br/>samples = 1<br/>value = [1, 0]<br/>class = 0>, fillcolor="#e58139"] ;
723 -> 724 ;
725 [label=<gini = 0.0<br/>samples = 4<br/>value = [0, 4]<br/>class = 1>, fillcolor="#399de5"] ;
723 -> 725 ;
726 [label=<TP2_std &le; -0.356<br/>gini = 0.032<br/>samples = 364<br/>value = [358, 6]<br/>class = 0>, fillcolor="#e5833c"] ;
722 -> 726 ;
727 [label=<gini = 0.0<br/>samples = 2<br/>value = [0, 2]<br/>class = 1>, fillcolor="#399de5"] ;
726 -> 727 ;
728 [label=<Flowmeter_max &le; -0.446<br/>gini = 0.022<br/>samples = 362<br/>value = [358, 4]<br/>class = 0>, fillcolor="#e5823b"] ;
726 -> 728 ;
729 [label=<Flowmeter_std &le; -0.405<br/>gini = 0.5<br/>samples = 6<br/>value = [3, 3]<br/>class = 0>, fillcolor="#ffffff"] ;
728 -> 729 ;
730 [label=<gini = 0.0<br/>samples = 3<br/>value = [0, 3]<br/>class = 1>, fillcolor="#399de5"] ;
729 -> 730 ;
731 [label=<gini = 0.0<br/>samples = 3<br/>value = [3, 0]<br/>class = 0>, fillcolor="#e58139"] ;
729 -> 731 ;
732 [label=<TP3_std &le; -0.371<br/>gini = 0.006<br/>samples = 356<br/>value = [355, 1]<br/>class = 0>, fillcolor="#e5813a"] ;
728 -> 732 ;
733 [label=<gini = 0.0<br/>samples = 355<br/>value = [355, 0]<br/>class = 0>, fillcolor="#e58139"] ;
732 -> 733 ;
734 [label=<gini = 0.0<br/>samples = 1<br/>value = [0, 1]<br/>class = 1>, fillcolor="#399de5"] ;
732 -> 734 ;
735 [label=<Motor_current_min &le; -0.836<br/>gini = 0.482<br/>samples = 104<br/>value = [62, 42]<br/>class = 0>, fillcolor="#f7d6bf"] ;
717 -> 735 ;
736 [label=<Oil_temperature_mean &le; -1.215<br/>gini = 0.325<br/>samples = 49<br/>value = [10, 39]<br/>class = 1>, fillcolor="#6cb6ec"] ;
735 -> 736 ;
737 [label=<gini = 0.0<br/>samples = 10<br/>value = [10, 0]<br/>class = 0>, fillcolor="#e58139"] ;
736 -> 737 ;
738 [label=<gini = 0.0<br/>samples = 39<br/>value = [0, 39]<br/>class = 1>, fillcolor="#399de5"] ;
736 -> 738 ;
739 [label=<TP3_max &le; -0.234<br/>gini = 0.103<br/>samples = 55<br/>value = [52, 3]<br/>class = 0>, fillcolor="#e68844"] ;
735 -> 739 ;
740 [label=<gini = 0.0<br/>samples = 52<br/>value = [52, 0]<br/>class = 0>, fillcolor="#e58139"] ;
739 -> 740 ;
741 [label=<gini = 0.0<br/>samples = 3<br/>value = [0, 3]<br/>class = 1>, fillcolor="#399de5"] ;
739 -> 741 ;
742 [label=<Oil_temperature_min &le; -0.982<br/>gini = 0.053<br/>samples = 37<br/>value = [1, 36]<br/>class = 1>, fillcolor="#3ea0e6"] ;
710 -> 742 ;
743 [label=<gini = 0.0<br/>samples = 36<br/>value = [0, 36]<br/>class = 1>, fillcolor="#399de5"] ;
742 -> 743 ;
744 [label=<gini = 0.0<br/>samples = 1<br/>value = [1, 0]<br/>class = 0>, fillcolor="#e58139"] ;
742 -> 744 ;
745 [label=<Flowmeter_max &le; -0.417<br/>gini = 0.494<br/>samples = 81<br/>value = [36, 45]<br/>class = 1>, fillcolor="#d7ebfa"] ;
563 -> 745 ;
746 [label=<Reservoirs_std &le; -0.07<br/>gini = 0.18<br/>samples = 50<br/>value = [5, 45]<br/>class = 1>, fillcolor="#4fa8e8"] ;
745 -> 746 ;
747 [label=<gini = 0.0<br/>samples = 45<br/>value = [0, 45]<br/>class = 1>, fillcolor="#399de5"] ;
746 -> 747 ;
748 [label=<gini = 0.0<br/>samples = 5<br/>value = [5, 0]<br/>class = 0>, fillcolor="#e58139"] ;
746 -> 748 ;
749 [label=<gini = 0.0<br/>samples = 31<br/>value = [31, 0]<br/>class = 0>, fillcolor="#e58139"] ;
745 -> 749 ;
750 [label=<TP2_mean &le; -0.392<br/>gini = 0.48<br/>samples = 272<br/>value = [163, 109]<br/>class = 0>, fillcolor="#f6d5bd"] ;
562 -> 750 ;
751 [label=<gini = 0.0<br/>samples = 86<br/>value = [0, 86]<br/>class = 1>, fillcolor="#399de5"] ;
750 -> 751 ;
752 [label=<Oil_temperature_mean &le; -1.669<br/>gini = 0.217<br/>samples = 186<br/>value = [163, 23]<br/>class = 0>, fillcolor="#e99355"] ;
750 -> 752 ;
753 [label=<gini = 0.0<br/>samples = 23<br/>value = [0, 23]<br/>class = 1>, fillcolor="#399de5"] ;
752 -> 753 ;
754 [label=<gini = 0.0<br/>samples = 163<br/>value = [163, 0]<br/>class = 0>, fillcolor="#e58139"] ;
752 -> 754 ;
755 [label=<Motor_current_mean &le; -0.971<br/>gini = 0.375<br/>samples = 1526<br/>value = [1145, 381]<br/>class = 0>, fillcolor="#eeab7b"] ;
561 -> 755 ;
756 [label=<gini = 0.0<br/>samples = 414<br/>value = [414, 0]<br/>class = 0>, fillcolor="#e58139"] ;
755 -> 756 ;
757 [label=<TP3_max &le; -0.817<br/>gini = 0.45<br/>samples = 1112<br/>value = [731, 381]<br/>class = 0>, fillcolor="#f3c3a0"] ;
755 -> 757 ;
758 [label=<Reservoirs_mean &le; -1.076<br/>gini = 0.453<br/>samples = 208<br/>value = [72, 136]<br/>class = 1>, fillcolor="#a2d1f3"] ;
757 -> 758 ;
759 [label=<DV_pressure_max &le; -0.182<br/>gini = 0.133<br/>samples = 42<br/>value = [39, 3]<br/>class = 0>, fillcolor="#e78b48"] ;
758 -> 759 ;
760 [label=<gini = 0.0<br/>samples = 39<br/>value = [39, 0]<br/>class = 0>, fillcolor="#e58139"] ;
759 -> 760 ;
761 [label=<gini = 0.0<br/>samples = 3<br/>value = [0, 3]<br/>class = 1>, fillcolor="#399de5"] ;
759 -> 761 ;
762 [label=<Oil_temperature_min &le; -1.473<br/>gini = 0.319<br/>samples = 166<br/>value = [33, 133]<br/>class = 1>, fillcolor="#6ab5eb"] ;
758 -> 762 ;
763 [label=<gini = 0.0<br/>samples = 22<br/>value = [22, 0]<br/>class = 0>, fillcolor="#e58139"] ;
762 -> 763 ;
764 [label=<Flowmeter_mean &le; -0.369<br/>gini = 0.141<br/>samples = 144<br/>value = [11, 133]<br/>class = 1>, fillcolor="#49a5e7"] ;
762 -> 764 ;
765 [label=<DV_pressure_std &le; -0.178<br/>gini = 0.07<br/>samples = 138<br/>value = [5, 133]<br/>class = 1>, fillcolor="#40a1e6"] ;
764 -> 765 ;
766 [label=<Motor_current_std &le; -0.448<br/>gini = 0.043<br/>samples = 135<br/>value = [3, 132]<br/>class = 1>, fillcolor="#3d9fe6"] ;
765 -> 766 ;
767 [label=<gini = 0.0<br/>samples = 1<br/>value = [1, 0]<br/>class = 0>, fillcolor="#e58139"] ;
766 -> 767 ;
768 [label=<Reservoirs_min &le; -1.09<br/>gini = 0.029<br/>samples = 134<br/>value = [2, 132]<br/>class = 1>, fillcolor="#3c9ee5"] ;
766 -> 768 ;
769 [label=<gini = 0.0<br/>samples = 1<br/>value = [1, 0]<br/>class = 0>, fillcolor="#e58139"] ;
768 -> 769 ;
770 [label=<DV_pressure_std &le; -0.178<br/>gini = 0.015<br/>samples = 133<br/>value = [1, 132]<br/>class = 1>, fillcolor="#3b9ee5"] ;
768 -> 770 ;
771 [label=<gini = 0.0<br/>samples = 129<br/>value = [0, 129]<br/>class = 1>, fillcolor="#399de5"] ;
770 -> 771 ;
772 [label=<Flowmeter_max &le; -0.439<br/>gini = 0.375<br/>samples = 4<br/>value = [1, 3]<br/>class = 1>, fillcolor="#7bbeee"] ;
770 -> 772 ;
773 [label=<gini = 0.0<br/>samples = 3<br/>value = [0, 3]<br/>class = 1>, fillcolor="#399de5"] ;
772 -> 773 ;
774 [label=<gini = 0.0<br/>samples = 1<br/>value = [1, 0]<br/>class = 0>, fillcolor="#e58139"] ;
772 -> 774 ;
775 [label=<Flowmeter_mean &le; -0.381<br/>gini = 0.444<br/>samples = 3<br/>value = [2, 1]<br/>class = 0>, fillcolor="#f2c09c"] ;
765 -> 775 ;
776 [label=<gini = 0.0<br/>samples = 1<br/>value = [0, 1]<br/>class = 1>, fillcolor="#399de5"] ;
775 -> 776 ;
777 [label=<gini = 0.0<br/>samples = 2<br/>value = [2, 0]<br/>class = 0>, fillcolor="#e58139"] ;
775 -> 777 ;
